{"learner":{"attributes":{"scikit_learn":"{\"_estimator_type\": \"regressor\"}"},"feature_names":["Rutting (mm)","Fatigue_Cracking (m²)","Block_Cracking (m²)","Longitudinal_Cracking (m²)","Transverse_Cracking (m²)","Patching (m²)","Potholes (Number)","Delamination (m²)","Severity_Rating","Traffic_Volume (vehicles/day)","Temperature_C","Precipitation_mm","Maintenance_History"],"feature_types":["float","float","float","float","float","float","float","float","float","float","float","float","float"],"gradient_booster":{"model":{"gbtree_model_param":{"num_parallel_tree":"1","num_trees":"100"},"iteration_indptr":[0,1,2,3,4,5,6,7,8,9,10,11,12,13,14,15,16,17,18,19,20,21,22,23,24,25,26,27,28,29,30,31,32,33,34,35,36,37,38,39,40,41,42,43,44,45,46,47,48,49,50,51,52,53,54,55,56,57,58,59,60,61,62,63,64,65,66,67,68,69,70,71,72,73,74,75,76,77,78,79,80,81,82,83,84,85,86,87,88,89,90,91,92,93,94,95,96,97,98,99,100],"tree_info":[0,0,0,0,0,0,0,0,0,0,0,0,0,0,0,0,0,0,0,0,0,0,0,0,0,0,0,0,0,0,0,0,0,0,0,0,0,0,0,0,0,0,0,0,0,0,0,0,0,0,0,0,0,0,0,0,0,0,0,0,0,0,0,0,0,0,0,0,0,0,0,0,0,0,0,0,0,0,0,0,0,0,0,0,0,0,0,0,0,0,0,0,0,0,0,0,0,0,0,0],"trees":[{"base_weights":[-1.8816384E-2,-4.541633E-3,3.6386E-2,-9.263767E-4,5.9229273E-2,6.5258695E-3,1.2877538E-3,-4.4996023E-2,3.4424048E-2,-5.426973E-5,-5.353154E-4,7.4700714E-4,1.2244897E-2,-1.1891465E-2,2.4277736E-2,-2.6336907E-5,-1.5203505E-4,2.8870715E-4,2.9529034E-5],"categories":[],"categories_nodes":[],"categories_segments":[],"categories_sizes":[],"default_left":[0,0,0,0,0,0,0,0,0,0,0,0,0,0,0,0,0,0,0],"id":0,"left_children":[1,-1,3,-1,5,7,-1,9,11,-1,-1,-1,13,15,17,-1,-1,-1,-1],"loss_changes":[6.413622E-1,0E0,7.622261E-2,0E0,7.613129E-2,2.0234715E-2,0E0,1.3981983E-3,7.1250163E-3,0E0,0E0,0E0,2.3217E-3,5.194507E-5,4.0447037E-4,0E0,0E0,0E0,0E0],"parents":[2147483647,0,0,2,2,4,4,5,5,7,7,8,8,12,12,13,13,14,14],"right_children":[2,-1,4,-1,6,8,-1,10,12,-1,-1,-1,14,16,18,-1,-1,-1,-1],"split_conditions":[2E-1,-4.541633E-3,5.308642E-2,-9.263767E-4,7.1428573E-1,2E-1,1.2877538E-3,1.8181818E-2,6.415094E-1,-5.426973E-5,-5.353154E-4,7.4700714E-4,5E-1,4E-1,6.166667E-1,-2.6336907E-5,-1.5203505E-4,2.8870715E-4,2.9529034E-5],"split_indices":[2,0,5,0,6,7,0,3,4,0,0,0,2,2,7,0,0,0,0],"split_type":[0,0,0,0,0,0,0,0,0,0,0,0,0,0,0,0,0,0,0],"sum_hessian":[2.5E1,2E0,2.3E1,3E0,2E1,1.2E1,8E0,4E0,8E0,1E0,3E0,2E0,6E0,2E0,4E0,1E0,1E0,3E0,1E0],"tree_param":{"num_deleted":"0","num_feature":"13","num_nodes":"19","size_leaf_vector":"1"}},{"base_weights":[2.4020993E-3,-3.9421762E-3,3.4035593E-2,-9.194289E-4,5.53937E-2,1.752115E-2,1.3404613E-3,-2.4916332E-3,6.20476E-2,5.2952096E-2,-2.6856443E-2,8.002845E-4,2.3384213E-4,-5.399853E-5,7.420269E-4,-8.77057E-3,-3.4437614E-4,-2.6205182E-5,-9.947081E-5],"categories":[],"categories_nodes":[],"categories_segments":[],"categories_sizes":[],"default_left":[0,0,0,0,0,0,0,0,0,0,0,0,0,0,0,0,0,0,0],"id":1,"left_children":[1,-1,3,-1,5,7,-1,9,11,13,15,-1,-1,-1,-1,17,-1,-1,-1],"loss_changes":[3.3962554E-1,0E0,7.235961E-2,0E0,6.318426E-2,1.4412172E-2,0E0,1.7632617E-2,1.6045999E-3,5.360741E-3,9.319722E-4,0E0,0E0,0E0,0E0,2.875924E-6,0E0,0E0,0E0],"parents":[2147483647,0,0,2,2,4,4,5,5,7,7,8,8,9,9,10,10,15,15],"right_children":[2,-1,4,-1,6,8,-1,10,12,14,16,-1,-1,-1,-1,18,-1,-1,-1],"split_conditions":[2E-1,-3.9421762E-3,5.308642E-2,-9.194289E-4,7.1428573E-1,4.6666667E-1,1.3404613E-3,6.415094E-1,3.0769232E-1,5.471698E-1,3.8043478E-1,8.002845E-4,2.3384213E-4,-5.399853E-5,7.420269E-4,4E-1,-3.4437614E-4,-2.6205182E-5,-9.947081E-5],"split_indices":[2,0,5,0,6,7,0,4,9,4,10,0,0,0,0,2,0,0,0],"split_type":[0,0,0,0,0,0,0,0,0,0,0,0,0,0,0,0,0,0,0],"sum_hessian":[2.5E1,1E0,2.4E1,3E0,2.1E1,1.5E1,6E0,1.1E1,4E0,3E0,8E0,2E0,2E0,1E0,2E0,3E0,5E0,1E0,2E0],"tree_param":{"num_deleted":"0","num_feature":"13","num_nodes":"19","size_leaf_vector":"1"}},{"base_weights":[2.1060865E-2,5.238687E-2,-2.3656744E-1,-3.621792E-2,8.3933905E-2,-2.8051466E-3,-7.43365E-4,-4.5953453E-2,-7.91939E-5,1.02699004E-1,-7.418692E-3,-5.8468996E-4,-1.8120088E-4,1.1040713E-1,-2.607405E-5,2.3228326E-4,-4.967987E-4,4.272911E-4,1.249803E-3],"categories":[],"categories_nodes":[],"categories_segments":[],"categories_sizes":[],"default_left":[0,0,0,0,0,0,0,0,0,0,0,0,0,0,0,0,0,0,0],"id":2,"left_children":[1,3,5,7,9,-1,-1,11,-1,13,15,-1,-1,17,-1,-1,-1,-1,-1],"loss_changes":[2.2222511E-1,7.012517E-2,5.363226E-4,1.5645865E-3,3.1618208E-2,0E0,0E0,6.822841E-4,0E0,1.2463614E-2,6.334698E-3,0E0,0E0,8.467674E-3,0E0,0E0,0E0,0E0,0E0],"parents":[2147483647,0,0,1,1,2,2,3,3,4,4,7,7,9,9,10,10,13,13],"right_children":[2,4,6,8,10,-1,-1,12,-1,14,16,-1,-1,18,-1,-1,-1,-1,-1],"split_conditions":[8.181818E-1,4E-1,3.548387E-1,5E-1,8.4782606E-1,-2.8051466E-3,-7.43365E-4,4.8387095E-1,-7.91939E-5,3.974359E-1,7.3333335E-1,-5.8468996E-4,-1.8120088E-4,3.846154E-2,-2.607405E-5,2.3228326E-4,-4.967987E-4,4.272911E-4,1.249803E-3],"split_indices":[3,1,0,2,10,0,0,0,0,9,1,0,0,9,0,0,0,0,0],"split_type":[0,0,0,0,0,0,0,0,0,0,0,0,0,0,0,0,0,0,0],"sum_hessian":[2.5E1,2.3E1,2E0,6E0,1.7E1,1E0,1E0,4E0,2E0,1.4E1,3E0,2E0,2E0,1.3E1,1E0,2E0,1E0,3E0,1E1],"tree_param":{"num_deleted":"0","num_feature":"13","num_nodes":"19","size_leaf_vector":"1"}},{"base_weights":[2.6670523E-2,-2.791121E-3,5.210073E-2,2.4644244E-2,1.113378E-3,7.866722E-2,1.9704653E-3,3.0696392E-5,9.6799206E-4,-1.7354654E-2,3.6361587E-4,-3.131977E-2,2.1015504E-2,-4.0240735E-2,-1.4568865E-4,3.4117638E-4,-2.5943815E-5,-4.556481E-4,-1.21342535E-4],"categories":[],"categories_nodes":[],"categories_segments":[],"categories_sizes":[],"default_left":[0,0,0,0,0,0,0,0,0,0,0,0,0,0,0,0,0,0,0],"id":3,"left_children":[1,-1,3,5,-1,7,9,-1,-1,11,-1,13,15,17,-1,-1,-1,-1,-1],"loss_changes":[2.0116869E-1,0E0,3.4664325E-2,2.0668376E-2,0E0,6.5565333E-3,9.271005E-3,0E0,0E0,5.4807942E-3,0E0,4.5977766E-4,1.0165338E-3,4.56688E-5,0E0,0E0,0E0,0E0,0E0],"parents":[2147483647,0,0,2,2,3,3,5,5,6,6,9,9,11,11,12,12,13,13],"right_children":[2,-1,4,6,-1,8,10,-1,-1,12,-1,14,16,18,-1,-1,-1,-1,-1],"split_conditions":[2E-1,-2.791121E-3,7.1428573E-1,5E-1,1.113378E-3,3.0645162E-1,4.6666667E-1,3.0696392E-5,9.6799206E-4,5.714286E-1,3.6361587E-4,1E0,5E-1,8.3870965E-1,-1.4568865E-4,3.4117638E-4,-2.5943815E-5,-4.556481E-4,-1.21342535E-4],"split_indices":[2,0,6,8,0,0,7,0,0,6,0,8,0,0,0,0,0,0,0],"split_type":[0,0,0,0,0,0,0,0,0,0,0,0,0,0,0,0,0,0,0],"sum_hessian":[2.3E1,1E0,2.2E1,1.6E1,6E0,4E0,1.2E1,1E0,3E0,8E0,4E0,6E0,2E0,3E0,3E0,1E0,1E0,2E0,1E0],"tree_param":{"num_deleted":"0","num_feature":"13","num_nodes":"19","size_leaf_vector":"1"}},{"base_weights":[1.852871E-2,-3.9055862E-3,4.610271E-2,-8.612957E-4,5.9087675E-2,1.7089019E-2,8.689369E-2,6.687625E-2,-1.6164124E-2,1.0229858E-1,-1.3960361E-4,8.67147E-4,-6.238788E-5,-3.068301E-2,1.8261692E-4,1.0969781E-1,3.054291E-5,-2.5814175E-5,-3.5787045E-4,3.7478405E-4,1.1942148E-3],"categories":[],"categories_nodes":[],"categories_segments":[],"categories_sizes":[],"default_left":[0,0,0,0,0,0,0,0,0,0,0,0,0,0,0,0,0,0,0,0,0],"id":4,"left_children":[1,-1,3,-1,5,7,9,11,13,15,-1,-1,-1,17,-1,19,-1,-1,-1,-1,-1],"loss_changes":[3.5641104E-1,0E0,5.4883122E-2,0E0,3.0046083E-2,2.0947978E-2,2.6286453E-2,7.7934414E-3,4.55892E-3,9.945586E-3,0E0,0E0,0E0,7.68207E-4,0E0,4.6533644E-3,0E0,0E0,0E0,0E0,0E0],"parents":[2147483647,0,0,2,2,4,4,5,5,6,6,7,7,8,8,9,9,13,13,15,15],"right_children":[2,-1,4,-1,6,8,10,12,14,16,-1,-1,-1,18,-1,20,-1,-1,-1,-1,-1],"split_conditions":[2E-1,-3.9055862E-3,4.8148148E-2,-8.612957E-4,4.4545454E-1,6.603774E-1,7.096774E-1,2.9090908E-1,8E-1,3.974359E-1,-1.3960361E-4,8.67147E-4,-6.238788E-5,1E-1,1.8261692E-4,3.846154E-2,3.054291E-5,-2.5814175E-5,-3.5787045E-4,3.7478405E-4,1.1942148E-3],"split_indices":[2,0,5,0,3,4,0,3,2,9,0,0,0,11,0,9,0,0,0,0,0],"split_type":[0,0,0,0,0,0,0,0,0,0,0,0,0,0,0,0,0,0,0,0,0],"sum_hessian":[2.9E1,1E0,2.8E1,2E0,2.6E1,1.1E1,1.5E1,4E0,7E0,1.3E1,2E0,3E0,1E0,5E0,2E0,1.2E1,1E0,1E0,4E0,2E0,1E1],"tree_param":{"num_deleted":"0","num_feature":"13","num_nodes":"21","size_leaf_vector":"1"}},{"base_weights":[1.826461E-2,4.55327E-2,-2.3323637E-3,-2.444658E-3,1.2733868E-3,5.7570327E-2,-2.9955832E-2,-5.693972E-5,7.136198E-4,-1.0858011E-2,-7.0211425E-4,-2.212879E-2,2.2816738E-4,2.414316E-3,-3.733752E-2,1.360473E-4,-5.850732E-5,-4.8361896E-4,-1.3867299E-4],"categories":[],"categories_nodes":[],"categories_segments":[],"categories_sizes":[],"default_left":[0,0,0,0,0,0,0,0,0,0,0,0,0,0,0,0,0,0,0],"id":5,"left_children":[1,3,-1,5,-1,7,9,-1,-1,11,-1,13,-1,15,17,-1,-1,-1,-1],"loss_changes":[2.0950049E-1,1.0628182E-1,0E0,3.1444054E-2,0E0,5.6414492E-3,9.231967E-3,0E0,0E0,4.3003135E-3,0E0,3.0763E-3,0E0,4.495549E-4,6.2307436E-4,0E0,0E0,0E0,0E0],"parents":[2147483647,0,0,1,1,3,3,5,5,6,6,9,9,11,11,13,13,14,14],"right_children":[2,4,-1,6,-1,8,10,-1,-1,12,-1,14,-1,16,18,-1,-1,-1,-1],"split_conditions":[8.090909E-1,7.1428573E-1,-2.3323637E-3,6.415094E-1,1.2733868E-3,1.2903225E-1,4.2E-1,-5.693972E-5,7.136198E-4,9.245283E-1,-7.0211425E-4,6.935484E-1,2.2816738E-4,3.3870968E-1,4.2857143E-1,1.360473E-4,-5.850732E-5,-4.8361896E-4,-1.3867299E-4],"split_indices":[3,6,0,4,0,0,11,0,0,4,0,0,0,0,6,0,0,0,0],"split_type":[0,0,0,0,0,0,0,0,0,0,0,0,0,0,0,0,0,0,0],"sum_hessian":[2.8E1,2.6E1,2E0,1.7E1,9E0,5E0,1.2E1,1E0,4E0,9E0,3E0,7E0,2E0,3E0,4E0,1E0,2E0,2E0,2E0],"tree_param":{"num_deleted":"0","num_feature":"13","num_nodes":"19","size_leaf_vector":"1"}},{"base_weights":[2.0302555E-2,4.48242E-2,-2.3168145E-1,8.898721E-3,1.2766159E-1,-2.7459753E-3,-7.292464E-4,-4.3459475E-2,4.192194E-2,1.3438604E-3,3.6932915E-4,-7.895887E-5,-5.2492518E-2,5.4809082E-2,-2.3600617E-2,-6.301101E-2,-1.7464181E-4,6.693147E-2,-3.8685799E-3,-4.889202E-4,1.3491094E-4,-1.8157899E-4,-6.9684815E-4,7.917269E-2,1.1977732E-2,2.9249488E-5,-8.727818E-5,4.1532292E-4,9.345047E-4,-2.5392472E-5,2.0505844E-4],"categories":[],"categories_nodes":[],"categories_segments":[],"categories_sizes":[],"default_left":[0,0,0,0,0,0,0,0,0,0,0,0,0,0,0,0,0,0,0,0,0,0,0,0,0,0,0,0,0,0,0],"id":6,"left_children":[1,3,5,7,9,-1,-1,11,13,-1,-1,-1,15,17,19,21,-1,23,25,-1,-1,-1,-1,27,29,-1,-1,-1,-1,-1,-1],"loss_changes":[2.0811495E-1,8.814317E-2,4.1472912E-4,3.98607E-2,5.276352E-4,0E0,0E0,2.4767518E-3,1.3115108E-2,0E0,0E0,0E0,1.4786813E-3,8.794691E-3,3.4739114E-3,2.3137592E-4,0E0,5.7787E-3,1.2456256E-4,0E0,0E0,0E0,0E0,4.1815639E-4,4.2347677E-4,0E0,0E0,0E0,0E0,0E0,0E0],"parents":[2147483647,0,0,1,1,2,2,3,3,4,4,7,7,8,8,12,12,13,13,14,14,15,15,17,17,18,18,23,23,24,24],"right_children":[2,4,6,8,10,-1,-1,12,14,-1,-1,-1,16,18,20,22,-1,24,26,-1,-1,-1,-1,28,30,-1,-1,-1,-1,-1,-1],"split_conditions":[8.181818E-1,7.1428573E-1,3.548387E-1,4E-1,8.490566E-1,-2.7459753E-3,-7.292464E-4,6.603774E-1,9.130435E-1,1.3438604E-3,3.6932915E-4,-7.895887E-5,4.8387095E-1,8.666667E-1,8.3870965E-1,6.981132E-1,-1.7464181E-4,3.0769232E-1,3.0645162E-1,-4.889202E-4,1.3491094E-4,-1.8157899E-4,-6.9684815E-4,3.846154E-2,6.935484E-1,2.9249488E-5,-8.727818E-5,4.1532292E-4,9.345047E-4,-2.5392472E-5,2.0505844E-4],"split_indices":[3,6,0,1,4,0,0,4,10,0,0,0,0,1,0,4,0,9,0,0,0,0,0,9,0,0,0,0,0,0,0],"split_type":[0,0,0,0,0,0,0,0,0,0,0,0,0,0,0,0,0,0,0,0,0,0,0,0,0,0,0,0,0,0,0],"sum_hessian":[3.1E1,2.9E1,2E0,2.1E1,8E0,1E0,1E0,8E0,1.3E1,7E0,1E0,2E0,6E0,1.1E1,2E0,4E0,2E0,9E0,2E0,1E0,1E0,1E0,3E0,7E0,2E0,1E0,1E0,3E0,4E0,1E0,1E0],"tree_param":{"num_deleted":"0","num_feature":"13","num_nodes":"31","size_leaf_vector":"1"}},{"base_weights":[-4.319668E-3,-4.4143177E-3,5.0499335E-2,1.0538185E-1,1.6471714E-2,4.1220797E-4,1.3059224E-3,-3.155613E-2,5.733294E-2,-9.190237E-3,-5.162446E-4,-3.3754945E-2,8.8180184E-2,-1.0224521E-4,-2.5265514E-5,-5.354273E-4,2.910316E-5,1.3549416E-4,9.836041E-4],"categories":[],"categories_nodes":[],"categories_segments":[],"categories_sizes":[],"default_left":[0,0,0,0,0,0,0,0,0,0,0,0,0,0,0,0,0,0,0],"id":7,"left_children":[1,-1,3,5,7,-1,-1,9,11,13,-1,15,17,-1,-1,-1,-1,-1,-1],"loss_changes":[6.4530534E-1,0E0,4.3084696E-2,9.174615E-3,3.3208832E-2,0E0,0E0,3.1163283E-3,2.8264808E-2,8.627947E-6,0E0,2.3323998E-3,3.98558E-3,0E0,0E0,0E0,0E0,0E0,0E0],"parents":[2147483647,0,0,2,2,3,3,4,4,7,7,8,8,9,9,11,11,12,12],"right_children":[2,-1,4,6,8,-1,-1,10,12,14,-1,16,18,-1,-1,-1,-1,-1,-1],"split_conditions":[5.283019E-1,-4.4143177E-3,8.974359E-2,3.846154E-2,3.3333334E-1,4.1220797E-4,1.3059224E-3,3.8043478E-1,3.0645162E-1,5.3846157E-1,-5.162446E-4,1.6129032E-2,4.4545454E-1,-1.0224521E-4,-2.5265514E-5,-5.354273E-4,2.910316E-5,1.3549416E-4,9.836041E-4],"split_indices":[4,0,9,9,7,0,0,10,0,9,0,0,3,0,0,0,0,0,0],"split_type":[0,0,0,0,0,0,0,0,0,0,0,0,0,0,0,0,0,0,0],"sum_hessian":[2.5E1,2E0,2.3E1,8E0,1.5E1,3E0,5E0,7E0,8E0,4E0,3E0,2E0,6E0,3E0,1E0,1E0,1E0,1E0,5E0],"tree_param":{"num_deleted":"0","num_feature":"13","num_nodes":"19","size_leaf_vector":"1"}},{"base_weights":[-2.4901794E-2,-4.3848893E-3,2.5724733E-2,-8.928947E-4,4.54671E-2,6.010878E-3,1.1376413E-3,-4.3219794E-2,2.7842013E-2,-5.574912E-5,-5.123728E-4,-2.1459757E-4,4.118238E-2,6.522979E-4,8.8984845E-3,-7.4313284E-5,2.2262135E-4],"categories":[],"categories_nodes":[],"categories_segments":[],"categories_sizes":[],"default_left":[0,0,0,0,0,0,0,0,0,0,0,0,0,0,0,0,0],"id":8,"left_children":[1,-1,3,-1,5,7,-1,9,11,-1,-1,-1,13,-1,15,-1,-1],"loss_changes":[5.766189E-1,0E0,6.0826052E-2,0E0,5.860052E-2,1.732475E-2,0E0,1.223444E-3,8.118505E-3,0E0,0E0,0E0,6.406651E-3,0E0,1.2565668E-3,0E0,0E0],"parents":[2147483647,0,0,2,2,4,4,5,5,7,7,8,8,12,12,14,14],"right_children":[2,-1,4,-1,6,8,-1,10,12,-1,-1,-1,14,-1,16,-1,-1],"split_conditions":[5.283019E-1,-4.3848893E-3,5.308642E-2,-8.928947E-4,7.1428573E-1,2E-1,1.1376413E-3,1.8181818E-2,2.6666668E-1,-5.574912E-5,-5.123728E-4,-2.1459757E-4,6.666667E-1,6.522979E-4,3.3333334E-1,-7.4313284E-5,2.2262135E-4],"split_indices":[4,0,5,0,6,7,0,3,1,0,0,0,1,0,7,0,0],"split_type":[0,0,0,0,0,0,0,0,0,0,0,0,0,0,0,0,0],"sum_hessian":[2.6E1,2E0,2.4E1,3E0,2.1E1,1.4E1,7E0,4E0,1E1,1E0,3E0,2E0,8E0,4E0,4E0,2E0,2E0],"tree_param":{"num_deleted":"0","num_feature":"13","num_nodes":"17","size_leaf_vector":"1"}},{"base_weights":[-3.2364774E-2,-4.355657E-3,2.4088291E-2,-6.8575103E-4,3.6783386E-2,-2.4011204E-2,5.8648996E-2,-5.5470464E-5,-2.6594626E-4,-1.8888691E-2,7.203085E-2,1.9800215E-4,-4.8133254E-4,7.946607E-2,-8.595913E-5,-2.4767518E-5,8.7140575E-2,3.2590822E-4,1.0352288E-3],"categories":[],"categories_nodes":[],"categories_segments":[],"categories_sizes":[],"default_left":[0,0,0,0,0,0,0,0,0,0,0,0,0,0,0,0,0,0,0],"id":9,"left_children":[1,-1,3,-1,5,7,9,-1,-1,11,13,-1,-1,15,-1,-1,17,-1,-1],"loss_changes":[5.5677825E-1,0E0,2.8402574E-2,0E0,2.7994446E-2,1.3868278E-4,1.6924538E-2,0E0,0E0,4.3473695E-3,8.476302E-3,0E0,0E0,7.7622756E-3,0E0,0E0,6.4562634E-3,0E0,0E0],"parents":[2147483647,0,0,2,2,4,4,5,5,6,6,9,9,10,10,13,13,16,16],"right_children":[2,-1,4,-1,6,8,10,-1,-1,12,14,-1,-1,16,-1,-1,18,-1,-1],"split_conditions":[2E-1,-4.355657E-3,1.1666667E-1,-6.8575103E-4,3.3333334E-1,1.2903225E-1,1.4285715E-1,-5.5470464E-5,-2.6594626E-4,8.2258064E-1,9E-1,1.9800215E-4,-4.8133254E-4,1E-1,-8.595913E-5,-2.4767518E-5,1.1481482E-1,3.2590822E-4,1.0352288E-3],"split_indices":[2,0,7,0,1,0,6,0,0,0,2,0,0,11,0,0,5,0,0],"split_type":[0,0,0,0,0,0,0,0,0,0,0,0,0,0,0,0,0,0,0],"sum_hessian":[2.3E1,2E0,2.1E1,2E0,1.9E1,5E0,1.4E1,1E0,4E0,2E0,1.2E1,1E0,1E0,1.1E1,1E0,1E0,1E1,3E0,7E0],"tree_param":{"num_deleted":"0","num_feature":"13","num_nodes":"19","size_leaf_vector":"1"}},{"base_weights":[-2.134892E-2,-4.3266187E-3,2.6931383E-2,9.404741E-2,-8.122821E-3,1.9945458E-2,1.2777415E-3,-4.8477203E-2,3.7617914E-2,-1.4140367E-4,3.6020856E-4,-8.894062E-3,-7.338362E-2,-5.280083E-4,5.5520363E-2,-2.464354E-5,-9.8854005E-5,-1.7568737E-4,-8.1032846E-4,7.0581894E-4,2.2813349E-4],"categories":[],"categories_nodes":[],"categories_segments":[],"categories_sizes":[],"default_left":[0,0,0,0,0,0,0,0,0,0,0,0,0,0,0,0,0,0,0,0,0],"id":10,"left_children":[1,-1,3,5,7,9,-1,11,13,-1,-1,15,17,-1,19,-1,-1,-1,-1,-1,-1],"loss_changes":[5.67685E-1,0E0,6.19341E-2,1.9944452E-2,3.5048716E-2,2.701121E-3,0E0,9.206062E-3,1.7499976E-2,0E0,0E0,7.508963E-6,1.1380017E-3,0E0,2.3307335E-3,0E0,0E0,0E0,0E0,0E0,0E0],"parents":[2147483647,0,0,2,2,3,3,4,4,5,5,7,7,8,8,11,11,12,12,14,14],"right_children":[2,-1,4,6,8,10,-1,12,14,-1,-1,16,18,-1,20,-1,-1,-1,-1,-1,-1],"split_conditions":[2E-1,-4.3266187E-3,8.974359E-2,3.846154E-2,3.3333334E-1,2.6666668E-1,1.2777415E-3,3.8043478E-1,6.666667E-2,-1.4140367E-4,3.6020856E-4,4E-1,2.6666668E-1,-5.280083E-4,6E-1,-2.464354E-5,-9.8854005E-5,-1.7568737E-4,-8.1032846E-4,7.0581894E-4,2.2813349E-4],"split_indices":[2,0,9,9,7,1,0,10,1,0,0,2,1,0,2,0,0,0,0,0,0],"split_type":[0,0,0,0,0,0,0,0,0,0,0,0,0,0,0,0,0,0,0,0,0],"sum_hessian":[2.7E1,2E0,2.5E1,8E0,1.7E1,3E0,5E0,9E0,8E0,1E0,2E0,4E0,5E0,1E0,7E0,1E0,3E0,1E0,4E0,4E0,3E0],"tree_param":{"num_deleted":"0","num_feature":"13","num_nodes":"21","size_leaf_vector":"1"}},{"base_weights":[2.2338964E-2,4.3543063E-2,-2.644838E-3,6.8558673E-3,1.2523228E-1,-4.8456132E-2,3.6111876E-2,1.3307352E-3,3.5171775E-4,-1.7346516E-4,-6.745171E-4,-4.7487437E-4,4.7035772E-2,5.7642143E-2,-3.9973855E-3,8.274226E-2,2.7118355E-2,2.5074482E-5,-8.503526E-5,2.1351248E-4,9.27522E-4,-2.4520456E-5,3.3522843E-4],"categories":[],"categories_nodes":[],"categories_segments":[],"categories_sizes":[],"default_left":[0,0,0,0,0,0,0,0,0,0,0,0,0,0,0,0,0,0,0,0,0,0,0],"id":11,"left_children":[1,3,-1,5,7,9,11,-1,-1,-1,-1,-1,13,15,17,19,21,-1,-1,-1,-1,-1,-1],"loss_changes":[1.7572553E-1,7.706207E-2,0E0,3.24958E-2,9.690523E-4,2.9665641E-3,1.4105603E-2,0E0,0E0,0E0,0E0,0E0,6.725738E-3,5.417671E-3,1.0925725E-4,1.0922253E-3,1.2184996E-3,0E0,0E0,0E0,0E0,0E0,0E0],"parents":[2147483647,0,0,1,1,3,3,4,4,5,5,6,6,12,12,13,13,14,14,15,15,16,16],"right_children":[2,4,-1,6,8,10,12,-1,-1,-1,-1,-1,14,16,18,20,22,-1,-1,-1,-1,-1,-1],"split_conditions":[8.181818E-1,7.1428573E-1,-2.644838E-3,4E-1,5.6666666E-1,4.6E-1,1.4285715E-1,1.3307352E-3,3.5171775E-4,-1.7346516E-4,-6.745171E-4,-4.7487437E-4,8.666667E-1,5.714286E-1,3.0645162E-1,1.0493827E-1,2.3333333E-1,2.5074482E-5,-8.503526E-5,2.1351248E-4,9.27522E-4,-2.4520456E-5,3.3522843E-4],"split_indices":[3,6,0,1,7,11,6,0,0,0,0,0,1,6,0,5,7,0,0,0,0,0,0],"split_type":[0,0,0,0,0,0,0,0,0,0,0,0,0,0,0,0,0,0,0,0,0,0,0],"sum_hessian":[2.6E1,2.5E1,1E0,1.8E1,7E0,6E0,1.2E1,6E0,1E0,3E0,3E0,1E0,1.1E1,9E0,2E0,4E0,5E0,1E0,1E0,1E0,3E0,1E0,4E0],"tree_param":{"num_deleted":"0","num_feature":"13","num_nodes":"23","size_leaf_vector":"1"}},{"base_weights":[7.3849233E-3,-3.8009568E-3,3.29708E-2,-8.687736E-4,4.9504943E-2,-1.9266104E-2,6.230278E-2,-5.3831634E-5,-2.1391049E-4,7.669699E-2,-4.8557757E-3,-2.992189E-4,8.428259E-2,-4.7250002E-4,1.7555282E-2,-2.4397968E-5,8.952743E-2,2.4949013E-5,2.1743774E-4,2.562228E-4,9.1920106E-4],"categories":[],"categories_nodes":[],"categories_segments":[],"categories_sizes":[],"default_left":[0,0,0,0,0,0,0,0,0,0,0,0,0,0,0,0,0,0,0,0,0],"id":12,"left_children":[1,-1,3,-1,5,7,9,-1,-1,11,13,-1,15,-1,17,-1,19,-1,-1,-1,-1],"loss_changes":[3.19867E-1,0E0,6.374846E-2,0E0,2.4963595E-2,3.2350887E-5,2.2606388E-2,0E0,0E0,1.7888494E-2,5.5799843E-3,0E0,8.405641E-3,0E0,1.9807252E-4,0E0,2.4417043E-4,0E0,0E0,0E0,0E0],"parents":[2147483647,0,0,2,2,4,4,5,5,6,6,9,9,10,10,12,12,14,14,16,16],"right_children":[2,-1,4,-1,6,8,10,-1,-1,12,14,-1,16,-1,18,-1,20,-1,-1,-1,-1],"split_conditions":[5.283019E-1,-3.8009568E-3,5.308642E-2,-8.687736E-4,3.3333334E-1,1.2903225E-1,8.4782606E-1,-5.3831634E-5,-2.1391049E-4,1.1666667E-1,8.867925E-1,-2.992189E-4,1E-1,-4.7250002E-4,3.0645162E-1,-2.4397968E-5,5.660377E-1,2.4949013E-5,2.1743774E-4,2.562228E-4,9.1920106E-4],"split_indices":[4,0,5,0,1,0,10,0,0,7,4,0,11,0,0,0,4,0,0,0,0],"split_type":[0,0,0,0,0,0,0,0,0,0,0,0,0,0,0,0,0,0,0,0,0],"sum_hessian":[3E1,1E0,2.9E1,3E0,2.6E1,4E0,2.2E1,1E0,3E0,1.8E1,4E0,1E0,1.7E1,1E0,3E0,1E0,1.6E1,1E0,2E0,1E0,1.5E1],"tree_param":{"num_deleted":"0","num_feature":"13","num_nodes":"21","size_leaf_vector":"1"}},{"base_weights":[2.3748796E-2,5.1007282E-2,-2.2040768E-1,-4.478603E-2,8.8656716E-2,-2.6126092E-3,-6.93506E-4,-7.207811E-5,-5.61108E-2,5.685019E-2,1.1768061E-1,-6.188278E-4,-1.3625443E-4,-2.4276078E-5,6.302073E-2,1.2375661E-3,3.4536302E-4,2.4824141E-5,6.947139E-2,7.498472E-2,1.2682348E-4,2.0784885E-4,7.9758285E-4],"categories":[],"categories_nodes":[],"categories_segments":[],"categories_sizes":[],"default_left":[0,0,0,0,0,0,0,0,0,0,0,0,0,0,0,0,0,0,0,0,0,0,0],"id":13,"left_children":[1,3,5,7,9,-1,-1,-1,11,13,15,-1,-1,-1,17,-1,-1,-1,19,21,-1,-1,-1],"loss_changes":[1.9759183E-1,9.7741224E-2,3.9491057E-4,3.0000824E-3,1.084967E-2,0E0,0E0,0E0,6.281659E-4,4.1765273E-3,2.7257204E-4,0E0,0E0,0E0,3.732659E-3,0E0,0E0,0E0,1.866892E-3,4.1203946E-4,0E0,0E0,0E0],"parents":[2147483647,0,0,1,1,2,2,3,3,4,4,8,8,9,9,10,10,14,14,18,18,19,19],"right_children":[2,4,6,8,10,-1,-1,-1,12,14,16,-1,-1,-1,18,-1,-1,-1,20,22,-1,-1,-1],"split_conditions":[8.181818E-1,4E-1,3.548387E-1,3.8E-1,7.1428573E-1,-2.6126092E-3,-6.93506E-4,-7.207811E-5,1E0,1E-1,6.8333334E-1,-6.188278E-4,-1.3625443E-4,-2.4276078E-5,3.0645162E-1,1.2375661E-3,3.4536302E-4,2.4824141E-5,9.032258E-1,1.0493827E-1,1.2682348E-4,2.0784885E-4,7.9758285E-4],"split_indices":[3,1,0,11,6,0,0,0,8,11,7,0,0,0,0,0,0,0,0,5,0,0,0],"split_type":[0,0,0,0,0,0,0,0,0,0,0,0,0,0,0,0,0,0,0,0,0,0,0],"sum_hessian":[2.7E1,2.5E1,2E0,7E0,1.8E1,1E0,1E0,2E0,5E0,1E1,8E0,4E0,1E0,1E0,9E0,7E0,1E0,1E0,8E0,7E0,1E0,1E0,6E0],"tree_param":{"num_deleted":"0","num_feature":"13","num_nodes":"23","size_leaf_vector":"1"}},{"base_weights":[-1.3841084E-2,-4.254092E-3,3.4179896E-2,-8.522819E-3,1.1578756E-1,-4.1251324E-2,2.878917E-2,1.216701E-3,3.4363626E-4,-1.11261004E-4,-5.2572694E-2,-3.321868E-2,5.1251225E-2,-5.6815702E-2,-1.3557315E-4,-2.4154782E-5,-4.7412544E-4,6.7183346E-4,2.2506296E-4,-6.1387726E-4,-1.6977786E-4],"categories":[],"categories_nodes":[],"categories_segments":[],"categories_sizes":[],"default_left":[0,0,0,0,0,0,0,0,0,0,0,0,0,0,0,0,0,0,0,0,0],"id":14,"left_children":[1,-1,3,5,7,9,11,-1,-1,-1,13,15,17,19,-1,-1,-1,-1,-1,-1,-1],"loss_changes":[5.6792974E-1,0E0,9.159343E-2,2.3168575E-2,1.2978166E-4,2.825657E-3,1.42379105E-2,0E0,0E0,0E0,3.88531E-4,1.1971251E-3,1.6937256E-3,5.0611794E-5,0E0,0E0,0E0,0E0,0E0,0E0,0E0],"parents":[2147483647,0,0,2,2,3,3,4,4,5,5,6,6,10,10,11,11,12,12,13,13],"right_children":[2,-1,4,6,8,10,12,-1,-1,-1,14,16,18,20,-1,-1,-1,-1,-1,-1,-1],"split_conditions":[2E-1,-4.254092E-3,7.1428573E-1,4E-1,6.8333334E-1,3.8E-1,2E-1,1.216701E-3,3.4363626E-4,-1.11261004E-4,1E0,7.3333335E-1,7E-1,2.0512821E-1,-1.3557315E-4,-2.4154782E-5,-4.7412544E-4,6.7183346E-4,2.2506296E-4,-6.1387726E-4,-1.6977786E-4],"split_indices":[2,0,6,1,7,11,11,0,0,0,8,1,2,9,0,0,0,0,0,0,0],"split_type":[0,0,0,0,0,0,0,0,0,0,0,0,0,0,0,0,0,0,0,0,0],"sum_hessian":[2.7E1,2E0,2.5E1,1.7E1,8E0,9E0,8E0,7E0,1E0,3E0,6E0,2E0,6E0,5E0,1E0,1E0,1E0,3E0,3E0,4E0,1E0],"tree_param":{"num_deleted":"0","num_feature":"13","num_nodes":"21","size_leaf_vector":"1"}},{"base_weights":[-1.5147079E-2,-4.2257314E-3,3.641231E-2,2.809243E-3,1.17618434E-1,5.3007204E-2,-2.0575143E-2,1.2582423E-3,3.4191817E-4,-5.2645802E-5,6.5714476E-4,-4.0791966E-2,9.809812E-3,-5.1781335E-5,-5.180022E-2,-1.3489515E-4,1.716758E-2,-1.8899878E-4,-6.352542E-4,2.6175438E-4,-9.431928E-5],"categories":[],"categories_nodes":[],"categories_segments":[],"categories_sizes":[],"default_left":[0,0,0,0,0,0,0,0,0,0,0,0,0,0,0,0,0,0,0,0,0],"id":15,"left_children":[1,-1,3,5,7,9,11,-1,-1,-1,-1,13,15,-1,17,-1,19,-1,-1,-1,-1],"loss_changes":[5.6155944E-1,0E0,6.516017E-2,2.2219906E-2,4.899204E-4,4.7888122E-3,8.385897E-3,0E0,0E0,0E0,0E0,2.86814E-3,1.2601686E-3,0E0,1.1139568E-3,0E0,1.4449082E-3,0E0,0E0,0E0,0E0],"parents":[2147483647,0,0,2,2,3,3,4,4,5,5,6,6,11,11,12,12,14,14,16,16],"right_children":[2,-1,4,6,8,10,12,-1,-1,-1,-1,14,16,-1,18,-1,20,-1,-1,-1,-1],"split_conditions":[2E-1,-4.2257314E-3,7.1428573E-1,6.415094E-1,7.924528E-1,1.2903225E-1,1E0,1.2582423E-3,3.4191817E-4,-5.2645802E-5,6.5714476E-4,3.8043478E-1,5E-1,-5.1781335E-5,4E-1,-1.3489515E-4,7.2727275E-1,-1.8899878E-4,-6.352542E-4,2.6175438E-4,-9.431928E-5],"split_indices":[2,0,6,4,4,0,8,0,0,0,0,10,2,0,2,0,3,0,0,0,0],"split_type":[0,0,0,0,0,0,0,0,0,0,0,0,0,0,0,0,0,0,0,0,0],"sum_hessian":[2.5E1,2E0,2.3E1,1.7E1,6E0,5E0,1.2E1,5E0,1E0,1E0,4E0,7E0,5E0,2E0,5E0,1E0,4E0,2E0,3E0,3E0,1E0],"tree_param":{"num_deleted":"0","num_feature":"13","num_nodes":"21","size_leaf_vector":"1"}},{"base_weights":[-1.2406773E-3,-3.7391926E-3,2.7474625E-2,-1.972738E-2,6.340459E-2,3.5933793E-2,-6.461876E-2,-5.4002306E-3,9.834702E-2,-7.0507725E-5,5.918877E-2,-7.226029E-2,-9.384781E-5,-4.2984247E-2,2.413784E-4,1.914516E-4,1.0501999E-1,8.0503366E-4,-2.3775101E-5,-2.0899772E-4,-7.8352436E-4,-5.10543E-4,-1.3422071E-4,1.1946615E-3,3.6305605E-4],"categories":[],"categories_nodes":[],"categories_segments":[],"categories_sizes":[],"default_left":[0,0,0,0,0,0,0,0,0,0,0,0,0,0,0,0,0,0,0,0,0,0,0,0,0],"id":16,"left_children":[1,-1,3,5,7,9,11,13,15,-1,17,19,-1,21,-1,-1,23,-1,-1,-1,-1,-1,-1,-1,-1],"loss_changes":[2.992159E-1,0E0,4.5345932E-2,3.2306477E-2,3.6594216E-2,6.4149564E-3,2.2763554E-3,7.6985024E-3,3.274493E-3,0E0,5.4404372E-3,2.3982674E-4,0E0,3.0450523E-5,0E0,0E0,4.596643E-3,0E0,0E0,0E0,0E0,0E0,0E0,0E0,0E0],"parents":[2147483647,0,0,2,2,3,3,4,4,5,5,6,6,7,7,8,8,10,10,11,11,13,13,16,16],"right_children":[2,-1,4,6,8,10,12,14,16,-1,18,20,-1,22,-1,-1,24,-1,-1,-1,-1,-1,-1,-1,-1],"split_conditions":[2E-1,-3.7391926E-3,3.3333334E-1,6.981132E-1,4.4545454E-1,3.3333334E-1,8E-1,2.6666668E-1,1.4285715E-1,-7.0507725E-5,6.666667E-1,3.3333334E-1,-9.384781E-5,6.666667E-2,2.413784E-4,1.914516E-4,1E0,8.0503366E-4,-2.3775101E-5,-2.0899772E-4,-7.8352436E-4,-5.10543E-4,-1.3422071E-4,1.1946615E-3,3.6305605E-4],"split_indices":[2,0,7,4,3,1,1,1,6,0,1,1,0,1,0,0,12,0,0,0,0,0,0,0,0],"split_type":[0,0,0,0,0,0,0,0,0,0,0,0,0,0,0,0,0,0,0,0,0,0,0,0,0],"sum_hessian":[2.6E1,1E0,2.5E1,1.1E1,1.4E1,5E0,6E0,5E0,9E0,2E0,3E0,5E0,1E0,2E0,3E0,1E0,8E0,2E0,1E0,1E0,4E0,1E0,1E0,6E0,2E0],"tree_param":{"num_deleted":"0","num_feature":"13","num_nodes":"25","size_leaf_vector":"1"}},{"base_weights":[-9.746635E-3,-4.1726315E-3,3.4263946E-2,2.3947295E-3,9.138907E-2,-1.9270953E-2,5.2548867E-2,1.16963714E-1,-6.9391396E-4,3.812027E-2,-3.8388584E-2,6.7021605E-4,1.5735587E-4,1.2312435E-3,3.3839344E-4,-1.3354956E-4,5.973033E-4,-5.8815677E-2,-2.112937E-3,-6.5505673E-4,-9.3378425E-5,-1.2165889E-2,1.9049435E-4,-1.4644106E-4,-2.3656188E-5],"categories":[],"categories_nodes":[],"categories_segments":[],"categories_sizes":[],"default_left":[0,0,0,0,0,0,0,0,0,0,0,0,0,0,0,0,0,0,0,0,0,0,0,0,0],"id":17,"left_children":[1,-1,3,5,7,9,11,13,-1,15,17,-1,-1,-1,-1,-1,-1,19,21,-1,-1,23,-1,-1,-1],"loss_changes":[5.5234826E-1,0E0,5.0756067E-2,2.1658516E-2,4.923532E-2,1.6823962E-2,2.1421108E-3,4.4244528E-4,0E0,5.247228E-3,8.02679E-3,0E0,0E0,0E0,0E0,0E0,0E0,1.7053653E-3,1.2954749E-3,0E0,0E0,6.250641E-5,0E0,0E0,0E0],"parents":[2147483647,0,0,2,2,3,3,4,4,5,5,6,6,7,7,9,9,10,10,17,17,18,18,21,21],"right_children":[2,-1,4,6,8,10,12,14,-1,16,18,-1,-1,-1,-1,-1,-1,20,22,-1,-1,24,-1,-1,-1],"split_conditions":[2E-1,-4.1726315E-3,7.1428573E-1,6E-1,8.090909E-1,5.1282052E-2,2.5641027E-1,6.8333334E-1,-6.9391396E-4,5E-1,2.0512821E-1,6.7021605E-4,1.5735587E-4,1.2312435E-3,3.3839344E-4,-1.3354956E-4,5.973033E-4,1E0,6.935484E-1,-6.5505673E-4,-9.3378425E-5,2.2580644E-1,1.9049435E-4,-1.4644106E-4,-2.3656188E-5],"split_indices":[2,0,6,7,3,9,9,7,0,2,9,0,0,0,0,0,0,8,0,0,0,0,0,0,0],"split_type":[0,0,0,0,0,0,0,0,0,0,0,0,0,0,0,0,0,0,0,0,0,0,0,0,0],"sum_hessian":[2.9E1,2E0,2.7E1,1.8E1,9E0,1.3E1,5E0,8E0,1E0,3E0,1E1,3E0,2E0,7E0,1E0,1E0,2E0,6E0,4E0,5E0,1E0,3E0,1E0,2E0,1E0],"tree_param":{"num_deleted":"0","num_feature":"13","num_nodes":"25","size_leaf_vector":"1"}},{"base_weights":[1.4048903E-2,-2.517588E-3,3.395531E-2,-3.9759286E-2,5.805765E-2,-6.676936E-4,-1.5601384E-2,7.4226126E-2,-5.2929996E-3,-6.94706E-5,-1.9055247E-4,8.355613E-2,5.944073E-3,-4.6138553E-4,1.6453028E-2,3.7113056E-4,9.2848507E-4,1.1269897E-4,-2.3537874E-5,1.7757415E-5,2.0753541E-4],"categories":[],"categories_nodes":[],"categories_segments":[],"categories_sizes":[],"default_left":[0,0,0,0,0,0,0,0,0,0,0,0,0,0,0,0,0,0,0,0,0],"id":18,"left_children":[1,-1,3,5,7,-1,9,11,13,-1,-1,15,17,-1,19,-1,-1,-1,-1,-1,-1],"loss_changes":[1.51413E-1,0E0,4.8502393E-2,3.5258522E-3,2.0878538E-2,0E0,1.7076265E-5,9.696491E-3,5.2002613E-3,0E0,0E0,2.596043E-3,1.5910581E-4,0E0,2.1562667E-4,0E0,0E0,0E0,0E0,0E0,0E0],"parents":[2147483647,0,0,2,2,3,3,4,4,6,6,7,7,8,8,11,11,12,12,14,14],"right_children":[2,-1,4,6,8,-1,10,12,14,-1,-1,16,18,-1,20,-1,-1,-1,-1,-1,-1],"split_conditions":[5.283019E-1,-2.517588E-3,4E-1,5.308642E-2,8.4782606E-1,-6.676936E-4,6.603774E-1,3.974359E-1,8.867925E-1,-6.94706E-5,-1.9055247E-4,3.846154E-2,3.3870968E-1,-4.6138553E-4,3.0645162E-1,3.7113056E-4,9.2848507E-4,1.1269897E-4,-2.3537874E-5,1.7757415E-5,2.0753541E-4],"split_indices":[4,0,1,5,10,0,4,9,4,0,0,9,0,0,0,0,0,0,0,0,0],"split_type":[0,0,0,0,0,0,0,0,0,0,0,0,0,0,0,0,0,0,0,0,0],"sum_hessian":[2.6E1,1E0,2.5E1,6E0,1.9E1,2E0,4E0,1.5E1,4E0,2E0,2E0,1.3E1,2E0,1E0,3E0,3E0,1E1,1E0,1E0,1E0,2E0],"tree_param":{"num_deleted":"0","num_feature":"13","num_nodes":"21","size_leaf_vector":"1"}},{"base_weights":[4.0385894E-2,6.2114023E-2,-4.5912553E-2,-4.1708738E-2,8.565916E-2,-7.670405E-4,1.8312533E-4,-5.256057E-5,-5.2107614E-4,9.211224E-2,-2.3420154E-5,-1.1797666E-4,1.2072354E-4,2.3789525E-4,9.553787E-2,1.0174883E-3,4.091839E-2,-9.7553726E-5,7.113296E-4],"categories":[],"categories_nodes":[],"categories_segments":[],"categories_sizes":[],"default_left":[0,0,0,0,0,0,0,0,0,0,0,0,0,0,0,0,0,0,0],"id":19,"left_children":[1,3,5,7,9,-1,11,-1,-1,13,-1,-1,-1,-1,15,-1,17,-1,-1],"loss_changes":[4.4104103E-2,4.757411E-2,7.11082E-3,1.2423871E-3,8.733913E-3,0E0,5.6975277E-4,0E0,0E0,1.0038763E-3,0E0,0E0,0E0,0E0,2.4671853E-4,0E0,5.2871862E-3,0E0,0E0],"parents":[2147483647,0,0,1,1,2,2,3,3,4,4,6,6,9,9,14,14,16,16],"right_children":[2,4,6,8,10,-1,12,-1,-1,14,-1,-1,-1,-1,16,-1,18,-1,-1],"split_conditions":[8.4782606E-1,4E-1,8.3870965E-1,6.603774E-1,3.974359E-1,-7.670405E-4,9.677419E-1,-5.256057E-5,-5.2107614E-4,5.660377E-1,-2.3420154E-5,-1.1797666E-4,1.2072354E-4,2.3789525E-4,7.419355E-1,1.0174883E-3,7.741935E-1,-9.7553726E-5,7.113296E-4],"split_indices":[10,1,0,4,9,0,0,0,0,4,0,0,0,0,0,0,0,0,0],"split_type":[0,0,0,0,0,0,0,0,0,0,0,0,0,0,0,0,0,0,0],"sum_hessian":[2.1E1,1.7E1,4E0,3E0,1.4E1,2E0,2E0,1E0,2E0,1.3E1,1E0,1E0,1E0,1E0,1.2E1,1E1,2E0,1E0,1E0],"tree_param":{"num_deleted":"0","num_feature":"13","num_nodes":"19","size_leaf_vector":"1"}},{"base_weights":[-2.0908214E-2,-4.127777E-3,2.8946651E-2,3.278984E-3,9.0813986E-4,4.8497677E-2,-2.3371836E-2,9.2563423E-4,1.235869E-2,-5.8315277E-2,2.1290818E-2,2.862241E-4,-8.024593E-3,-1.1738687E-4,-6.4121594E-4,-2.052923E-3,3.3475918E-4,-2.3303031E-5,-9.7065866E-5,-5.229771E-5,2.1503865E-5],"categories":[],"categories_nodes":[],"categories_segments":[],"categories_sizes":[],"default_left":[0,0,0,0,0,0,0,0,0,0,0,0,0,0,0,0,0,0,0,0,0],"id":20,"left_children":[1,-1,3,5,-1,7,9,-1,11,13,15,-1,17,-1,-1,19,-1,-1,-1,-1,-1],"loss_changes":[5.199002E-1,0E0,3.7813988E-2,2.2825554E-2,0E0,1.0003481E-2,1.996958E-2,0E0,1.8872233E-3,1.1403672E-3,1.7753991E-3,0E0,6.1140017E-6,0E0,0E0,5.130586E-5,0E0,0E0,0E0,0E0,0E0],"parents":[2147483647,0,0,2,2,3,3,5,5,6,6,8,8,9,9,10,10,12,12,15,15],"right_children":[2,-1,4,6,-1,8,10,-1,12,14,16,-1,18,-1,-1,20,-1,-1,-1,-1,-1],"split_conditions":[2E-1,-4.127777E-3,7.1428573E-1,3.6956522E-1,9.0813986E-4,4.2857143E-1,2.0512821E-1,9.2563423E-4,3.846154E-2,2.5641026E-2,1E0,2.862241E-4,4E-1,-1.1738687E-4,-6.4121594E-4,6E-1,3.3475918E-4,-2.3303031E-5,-9.7065866E-5,-5.229771E-5,2.1503865E-5],"split_indices":[2,0,6,10,0,6,9,0,9,9,8,0,2,0,0,2,0,0,0,0,0],"split_type":[0,0,0,0,0,0,0,0,0,0,0,0,0,0,0,0,0,0,0,0,0],"sum_hessian":[2.5E1,2E0,2.3E1,1.7E1,6E0,6E0,1.1E1,2E0,4E0,6E0,5E0,2E0,2E0,1E0,5E0,2E0,3E0,1E0,1E0,1E0,1E0],"tree_param":{"num_deleted":"0","num_feature":"13","num_nodes":"21","size_leaf_vector":"1"}},{"base_weights":[-5.7065925E-3,-4.1002585E-3,3.4915555E-2,-8.3771406E-4,5.120564E-2,-1.2122886E-2,6.987678E-2,-3.4390956E-2,6.074276E-4,-1.6369125E-4,7.981683E-2,-7.1568094E-5,-4.6218827E-4,8.81789E-2,5.826155E-3,3.6283655E-4,9.670763E-2,1.1057883E-4,-2.3186505E-5,1.0601922E-3,2.7225335E-4],"categories":[],"categories_nodes":[],"categories_segments":[],"categories_sizes":[],"default_left":[0,0,0,0,0,0,0,0,0,0,0,0,0,0,0,0,0,0,0,0,0],"id":21,"left_children":[1,-1,3,-1,5,7,9,11,-1,-1,13,-1,-1,15,17,-1,19,-1,-1,-1,-1],"loss_changes":[5.398944E-1,0E0,6.2292185E-2,0E0,3.2772347E-2,1.34470435E-2,1.9309588E-2,1.6019526E-3,0E0,0E0,1.1241861E-2,0E0,0E0,4.015282E-3,1.5347361E-4,0E0,6.171465E-3,0E0,0E0,0E0,0E0],"parents":[2147483647,0,0,2,2,4,4,5,5,6,6,7,7,10,10,13,13,14,14,16,16],"right_children":[2,-1,4,-1,6,8,10,12,-1,-1,14,-1,-1,16,18,-1,20,-1,-1,-1,-1],"split_conditions":[2E-1,-4.1002585E-3,5.308642E-2,-8.3771406E-4,2E-1,8E-1,2.5641026E-2,4.032258E-1,6.074276E-4,-1.6369125E-4,3.974359E-1,-7.1568094E-5,-4.6218827E-4,3.846154E-2,3.3870968E-1,3.6283655E-4,9E-1,1.1057883E-4,-2.3186505E-5,1.0601922E-3,2.7225335E-4],"split_indices":[2,0,5,0,7,2,9,0,0,0,9,0,0,9,0,0,2,0,0,0,0],"split_type":[0,0,0,0,0,0,0,0,0,0,0,0,0,0,0,0,0,0,0,0,0],"sum_hessian":[3.1E1,2E0,2.9E1,3E0,2.6E1,6E0,2E1,5E0,1E0,2E0,1.8E1,2E0,3E0,1.6E1,2E0,3E0,1.3E1,1E0,1E0,1.1E1,2E0],"tree_param":{"num_deleted":"0","num_feature":"13","num_nodes":"21","size_leaf_vector":"1"}},{"base_weights":[-1.0094527E-2,-4.0729237E-3,3.7972994E-2,5.9758294E-2,-2.6583245E-2,2.066944E-2,1.10921785E-1,8.292461E-3,-7.5848337E-4,-3.58963E-2,3.557222E-2,1.1770689E-3,3.171301E-4,-6.3425503E-3,2.0163317E-4,-5.4957865E-5,-4.8348666E-4,5.8917444E-2,4.4350623E-4,2.0843447E-5,-1.159817E-4,-1.9560248E-4,7.852503E-2,3.5795182E-4,-1.7343208E-2,2.3346065E-4,8.6483255E-4,-4.9832663E-5,-2.7211517E-4],"categories":[],"categories_nodes":[],"categories_segments":[],"categories_sizes":[],"default_left":[0,0,0,0,0,0,0,0,0,0,0,0,0,0,0,0,0,0,0,0,0,0,0,0,0,0,0,0,0],"id":22,"left_children":[1,-1,3,5,7,9,11,13,-1,15,17,-1,-1,19,-1,-1,-1,21,23,-1,-1,-1,25,-1,27,-1,-1,-1,-1],"loss_changes":[5.309586E-1,0E0,3.6747996E-2,3.5705827E-2,1.26560535E-2,1.1392752E-2,5.6669116E-4,9.965374E-4,0E0,8.6996076E-4,8.174745E-3,0E0,0E0,1.5704022E-4,0E0,0E0,0E0,1.076852E-2,3.7647542E-3,0E0,0E0,0E0,1.7658994E-4,0E0,3.5228464E-4,0E0,0E0,0E0,0E0],"parents":[2147483647,0,0,2,2,3,3,4,4,5,5,6,6,7,7,9,9,10,10,13,13,17,17,18,18,22,22,24,24],"right_children":[2,-1,4,6,8,10,12,14,-1,16,18,-1,-1,20,-1,-1,-1,22,24,-1,-1,-1,26,-1,28,-1,-1,-1,-1],"split_conditions":[5.283019E-1,-4.0729237E-3,8.4782606E-1,7.1428573E-1,7.2727275E-1,2.7419356E-1,8.490566E-1,9.433962E-1,-7.5848337E-4,1.2903225E-1,5E-1,1.1770689E-3,3.171301E-4,3.0645162E-1,2.0163317E-4,-5.4957865E-5,-4.8348666E-4,2.5454545E-1,3.2258064E-1,2.0843447E-5,-1.159817E-4,-1.9560248E-4,2.6363635E-1,3.5795182E-4,3.6363637E-1,2.3346065E-4,8.6483255E-4,-4.9832663E-5,-2.7211517E-4],"split_indices":[4,0,10,6,3,0,4,4,0,0,8,0,0,0,0,0,0,3,0,0,0,0,3,0,3,0,0,0,0],"split_type":[0,0,0,0,0,0,0,0,0,0,0,0,0,0,0,0,0,0,0,0,0,0,0,0,0,0,0,0,0],"sum_hessian":[2.6E1,2E0,2.4E1,1.8E1,6E0,1.1E1,7E0,4E0,2E0,2E0,9E0,6E0,1E0,2E0,2E0,1E0,1E0,5E0,4E0,1E0,1E0,1E0,4E0,1E0,3E0,1E0,3E0,2E0,1E0],"tree_param":{"num_deleted":"0","num_feature":"13","num_nodes":"29","size_leaf_vector":"1"}},{"base_weights":[-2.2813862E-2,-4.0457705E-3,2.5857119E-2,-7.768503E-4,3.880118E-2,-2.4215668E-2,5.876E-2,-5.142927E-5,-2.700163E-4,7.87594E-2,-4.9904585E-3,5.8027912E-2,1.1089828E-3,-4.4593393E-4,1.6058624E-2,6.49826E-4,-2.2821427E-5,2.0739139E-5,2.002889E-4],"categories":[],"categories_nodes":[],"categories_segments":[],"categories_sizes":[],"default_left":[0,0,0,0,0,0,0,0,0,0,0,0,0,0,0,0,0,0,0],"id":23,"left_children":[1,-1,3,-1,5,7,9,-1,-1,11,13,15,-1,-1,17,-1,-1,-1,-1],"loss_changes":[4.9356174E-1,0E0,3.5180416E-2,0E0,2.9093236E-2,1.7994829E-4,2.2067554E-2,0E0,0E0,2.2265315E-3,4.8841354E-3,4.342675E-3,0E0,0E0,1.8055388E-4,0E0,0E0,0E0,0E0],"parents":[2147483647,0,0,2,2,4,4,5,5,6,6,9,9,10,10,11,11,14,14],"right_children":[2,-1,4,-1,6,8,10,-1,-1,12,14,16,-1,-1,18,-1,-1,-1,-1],"split_conditions":[2E-1,-4.0457705E-3,5.308642E-2,-7.768503E-4,4E-1,2E-1,8.4782606E-1,-5.142927E-5,-2.700163E-4,6.935484E-1,8.867925E-1,6.7741936E-1,1.1089828E-3,-4.4593393E-4,3.0645162E-1,6.49826E-4,-2.2821427E-5,2.0739139E-5,2.002889E-4],"split_indices":[2,0,5,0,1,1,10,0,0,0,4,0,0,0,0,0,0,0,0],"split_type":[0,0,0,0,0,0,0,0,0,0,0,0,0,0,0,0,0,0,0],"sum_hessian":[2.5E1,2E0,2.3E1,2E0,2.1E1,5E0,1.6E1,1E0,4E0,1.2E1,4E0,9E0,3E0,1E0,3E0,8E0,1E0,1E0,2E0],"tree_param":{"num_deleted":"0","num_feature":"13","num_nodes":"19","size_leaf_vector":"1"}},{"base_weights":[4.1243065E-2,1.8118378E-2,9.481468E-4,-3.6203563E-2,4.1796323E-2,-4.532273E-4,-1.19768185E-4,5.087731E-2,-5.432745E-3,6.898261E-2,1.535443E-2,2.0635425E-5,-1.0212659E-4,3.560187E-4,8.5117697E-4,-2.2707283E-5,2.0328403E-4],"categories":[],"categories_nodes":[],"categories_segments":[],"categories_sizes":[],"default_left":[0,0,0,0,0,0,0,0,0,0,0,0,0,0,0,0,0],"id":24,"left_children":[1,3,-1,5,7,-1,-1,9,11,13,15,-1,-1,-1,-1,-1,-1],"loss_changes":[2.801396E-2,2.4665348E-2,0E0,7.8274496E-4,5.851928E-3,0E0,0E0,6.015487E-3,1.2856911E-4,7.398613E-4,4.8449554E-4,0E0,0E0,0E0,0E0,0E0,0E0],"parents":[2147483647,0,0,1,1,3,3,4,4,7,7,8,8,9,9,10,10],"right_children":[2,4,-1,6,8,-1,-1,10,12,14,16,-1,-1,-1,-1,-1,-1],"split_conditions":[7.1428573E-1,4E-1,9.481468E-4,5E-1,8.666667E-1,-4.532273E-4,-1.19768185E-4,3.0769232E-1,3.0645162E-1,3.846154E-2,6.981132E-1,2.0635425E-5,-1.0212659E-4,3.560187E-4,8.5117697E-4,-2.2707283E-5,2.0328403E-4],"split_indices":[6,1,0,12,1,0,0,9,0,9,4,0,0,0,0,0,0],"split_type":[0,0,0,0,0,0,0,0,0,0,0,0,0,0,0,0,0],"sum_hessian":[2.3E1,1.7E1,6E0,5E0,1.2E1,3E0,2E0,1E1,2E0,6E0,4E0,1E0,1E0,3E0,3E0,1E0,3E0],"tree_param":{"num_deleted":"0","num_feature":"13","num_nodes":"17","size_leaf_vector":"1"}},{"base_weights":[1.945327E-2,-2.4230357E-3,4.2365108E-2,1.085132E-2,1.0834446E-1,-1.8340647E-2,5.100394E-2,1.1615005E-3,3.0755458E-4,6.5662444E-4,-3.497015E-2,6.9080974E-4,2.0175919E-4,-8.7391585E-3,-4.662912E-2,-2.2593737E-5,-1.0145962E-4,-2.3799746E-4,-6.152524E-4],"categories":[],"categories_nodes":[],"categories_segments":[],"categories_sizes":[],"default_left":[0,0,0,0,0,0,0,0,0,0,0,0,0,0,0,0,0,0,0],"id":25,"left_children":[1,-1,3,5,7,9,11,-1,-1,-1,13,-1,-1,15,17,-1,-1,-1,-1],"loss_changes":[1.4820379E-1,0E0,4.4568025E-2,1.968959E-2,6.671548E-4,1.626552E-2,2.5071818E-3,0E0,0E0,0E0,2.344939E-3,0E0,0E0,1.3539626E-5,5.761292E-4,0E0,0E0,0E0,0E0],"parents":[2147483647,0,0,2,2,3,3,4,4,5,5,6,6,10,10,13,13,14,14],"right_children":[2,-1,4,6,8,10,12,-1,-1,-1,14,-1,-1,16,18,-1,-1,-1,-1],"split_conditions":[2E-1,-2.4230357E-3,7.1428573E-1,4.6666667E-1,4.8333332E-1,2.2826087E-1,6.7391306E-1,1.1615005E-3,3.0755458E-4,6.5662444E-4,3.8043478E-1,6.9080974E-4,2.0175919E-4,4E-1,3.3333334E-1,-2.2593737E-5,-1.0145962E-4,-2.3799746E-4,-6.152524E-4],"split_indices":[2,0,6,7,7,10,10,0,0,0,10,0,0,2,1,0,0,0,0],"split_type":[0,0,0,0,0,0,0,0,0,0,0,0,0,0,0,0,0,0,0],"sum_hessian":[2.2E1,1E0,2.1E1,1.5E1,6E0,9E0,6E0,5E0,1E0,1E0,8E0,3E0,3E0,3E0,5E0,1E0,2E0,3E0,2E0],"tree_param":{"num_deleted":"0","num_feature":"13","num_nodes":"19","size_leaf_vector":"1"}},{"base_weights":[-3.5478212E-2,1.1578508E-2,-4.0010586E-3,-8.251704E-4,2.8950112E-2,-3.2601178E-2,4.5350485E-2,-7.07223E-5,-4.7263067E-4,6.324992E-2,1.993199E-3,-1.5675067E-4,8.060242E-2,-1.1925976E-2,1.193428E-2,3.2201092E-4,8.867762E-4,-1.5640885E-4,-2.2480785E-5,1.95235E-5,1.4610807E-4],"categories":[],"categories_nodes":[],"categories_segments":[],"categories_sizes":[],"default_left":[0,0,0,0,0,0,0,0,0,0,0,0,0,0,0,0,0,0,0,0,0],"id":26,"left_children":[1,3,-1,-1,5,7,9,-1,-1,11,13,-1,15,17,19,-1,-1,-1,-1,-1,-1],"loss_changes":[4.5074537E-1,4.161905E-2,0E0,0E0,2.2677226E-2,1.5372578E-3,1.3067134E-2,0E0,0E0,1.7698001E-2,9.725578E-4,0E0,1.0529906E-3,7.269558E-5,7.8342215E-5,0E0,0E0,0E0,0E0,0E0,0E0],"parents":[2147483647,0,0,1,1,4,4,5,5,6,6,9,9,10,10,12,12,13,13,14,14],"right_children":[2,4,-1,-1,6,8,10,-1,-1,12,14,-1,16,18,20,-1,-1,-1,-1,-1,-1],"split_conditions":[7.2839504E-1,5.308642E-2,-4.0010586E-3,-8.251704E-4,2E-1,4.032258E-1,3.0769232E-1,-7.07223E-5,-4.7263067E-4,2.5641026E-2,3.4545454E-1,-1.5675067E-4,3.846154E-2,2.2580644E-1,3.0645162E-1,3.2201092E-4,8.867762E-4,-1.5640885E-4,-2.2480785E-5,1.95235E-5,1.4610807E-4],"split_indices":[5,5,0,0,7,0,9,0,0,9,3,0,9,0,0,0,0,0,0,0,0],"split_type":[0,0,0,0,0,0,0,0,0,0,0,0,0,0,0,0,0,0,0,0,0],"sum_hessian":[2.5E1,2.3E1,2E0,3E0,2E1,4E0,1.6E1,2E0,2E0,1.1E1,5E0,2E0,9E0,2E0,3E0,2E0,7E0,1E0,1E0,1E0,2E0],"tree_param":{"num_deleted":"0","num_feature":"13","num_nodes":"21","size_leaf_vector":"1"}},{"base_weights":[-1.4036731E-2,-3.5706623E-3,1.39671E-2,-8.189817E-4,3.076228E-2,3.9874422E-3,1.0149727E-3,-2.3634575E-2,2.5686312E-2,-1.07593834E-4,-2.9207813E-4,-3.0992607E-2,4.3730117E-2,-2.2368431E-5,-4.4252066E-4,5.831452E-4,2.3316573E-4],"categories":[],"categories_nodes":[],"categories_segments":[],"categories_sizes":[],"default_left":[0,0,0,0,0,0,0,0,0,0,0,0,0,0,0,0,0],"id":27,"left_children":[1,-1,3,-1,5,7,-1,9,11,-1,-1,13,15,-1,-1,-1,-1],"loss_changes":[2.5474682E-1,0E0,4.277123E-2,0E0,4.1261487E-2,1.0796317E-2,0E0,2.597943E-4,1.1582344E-2,0E0,0E0,1.0448729E-3,1.0220585E-3,0E0,0E0,0E0,0E0],"parents":[2147483647,0,0,2,2,4,4,5,5,7,7,8,8,11,11,12,12],"right_children":[2,-1,4,-1,6,8,-1,10,12,-1,-1,14,16,-1,-1,-1,-1],"split_conditions":[2E-1,-3.5706623E-3,5.308642E-2,-8.189817E-4,7.1428573E-1,4E-1,1.0149727E-3,9.135803E-2,2E-1,-1.07593834E-4,-2.9207813E-4,6.935484E-1,1E0,-2.2368431E-5,-4.4252066E-4,5.831452E-4,2.3316573E-4],"split_indices":[2,0,5,0,6,1,0,5,11,0,0,0,8,0,0,0,0],"split_type":[0,0,0,0,0,0,0,0,0,0,0,0,0,0,0,0,0],"sum_hessian":[2.5E1,1E0,2.4E1,3E0,2.1E1,1.6E1,5E0,7E0,9E0,3E0,4E0,2E0,7E0,1E0,1E0,3E0,4E0],"tree_param":{"num_deleted":"0","num_feature":"13","num_nodes":"17","size_leaf_vector":"1"}},{"base_weights":[-1.1895547E-2,-3.9505805E-3,3.2773033E-2,-2.1751754E-2,5.400594E-2,-4.368272E-2,6.5882504E-4,6.4591266E-2,-6.826499E-4,-4.917443E-5,-4.9324024E-2,8.29477E-2,1.4053792E-2,-5.4297376E-2,-1.2228638E-4,9.023095E-2,-2.2256672E-5,-3.646779E-2,4.843153E-2,-1.5416651E-4,-6.016339E-4,3.171432E-4,9.876285E-4,-1.067087E-4,-4.4030815E-4,1.9372483E-4,6.7804335E-4],"categories":[],"categories_nodes":[],"categories_segments":[],"categories_sizes":[],"default_left":[0,0,0,0,0,0,0,0,0,0,0,0,0,0,0,0,0,0,0,0,0,0,0,0,0,0,0],"id":28,"left_children":[1,-1,3,5,7,9,-1,11,-1,-1,13,15,17,19,-1,21,-1,23,25,-1,-1,-1,-1,-1,-1,-1,-1],"loss_changes":[4.9217632E-1,0E0,3.1275436E-2,1.8253159E-2,2.9000603E-2,1.2882603E-3,0E0,1.5532643E-2,0E0,0E0,4.429454E-4,8.2652345E-3,1.2187098E-2,2.128575E-4,0E0,2.8588995E-3,0E0,1.1546118E-4,9.382833E-4,0E0,0E0,0E0,0E0,0E0,0E0,0E0,0E0],"parents":[2147483647,0,0,2,2,3,3,4,4,5,5,7,7,10,10,11,11,12,12,13,13,15,15,17,17,18,18],"right_children":[2,-1,4,6,8,10,-1,12,-1,-1,14,16,18,20,-1,22,-1,24,26,-1,-1,-1,-1,-1,-1,-1,-1],"split_conditions":[2E-1,-3.9505805E-3,4E-1,6.181818E-1,8.181818E-1,6.603774E-1,6.5882504E-4,7.419355E-1,-6.826499E-4,-4.917443E-5,4.8387095E-1,3.974359E-1,9.245283E-1,6.981132E-1,-1.2228638E-4,3.846154E-2,-2.2256672E-5,7.741935E-1,7.3333335E-1,-1.5416651E-4,-6.016339E-4,3.171432E-4,9.876285E-4,-1.067087E-4,-4.4030815E-4,1.9372483E-4,6.7804335E-4],"split_indices":[2,0,1,3,3,4,0,0,0,0,0,9,4,4,0,9,0,0,1,0,0,0,0,0,0,0,0],"split_type":[0,0,0,0,0,0,0,0,0,0,0,0,0,0,0,0,0,0,0,0,0,0,0,0,0,0,0],"sum_hessian":[2.7E1,2E0,2.5E1,7E0,1.8E1,6E0,1E0,1.7E1,1E0,1E0,5E0,1.2E1,5E0,4E0,1E0,1.1E1,1E0,2E0,3E0,1E0,3E0,2E0,9E0,1E0,1E0,2E0,1E0],"tree_param":{"num_deleted":"0","num_feature":"13","num_nodes":"27","size_leaf_vector":"1"}},{"base_weights":[2.0869393E-2,-2.3533085E-3,3.9774437E-2,-3.9066896E-2,7.0877396E-2,-6.2467495E-4,-2.0855447E-2,4.710103E-2,1.0490816E-1,-5.4879783E-5,-2.2831344E-4,5.8932643E-2,1.6383922E-2,1.1267385E-3,2.9156983E-4,3.817893E-2,8.771375E-4,1.6621052E-5,1.964885E-4,4.5280266E-4,-2.2145508E-5],"categories":[],"categories_nodes":[],"categories_segments":[],"categories_sizes":[],"default_left":[0,0,0,0,0,0,0,0,0,0,0,0,0,0,0,0,0,0,0,0,0],"id":29,"left_children":[1,-1,3,5,7,-1,9,11,13,-1,-1,15,17,-1,-1,19,-1,-1,-1,-1,-1],"loss_changes":[1.4013402E-1,0E0,6.652613E-2,2.106484E-3,1.04321465E-2,0E0,5.6889374E-5,3.7590805E-3,8.3259493E-4,0E0,0E0,2.0270161E-3,2.076698E-4,0E0,0E0,2.1082107E-3,0E0,0E0,0E0,0E0,0E0],"parents":[2147483647,0,0,2,2,3,3,4,4,6,6,7,7,8,8,11,11,12,12,15,15],"right_children":[2,-1,4,6,8,-1,10,12,14,-1,-1,16,18,-1,-1,20,-1,-1,-1,-1,-1],"split_conditions":[2E-1,-2.3533085E-3,4E-1,5.308642E-2,7.1428573E-1,-6.2467495E-4,1.2903225E-1,6.7391306E-1,1E0,-5.4879783E-5,-2.2831344E-4,6.935484E-1,3.0645162E-1,1.1267385E-3,2.9156983E-4,5.8064514E-1,8.771375E-4,1.6621052E-5,1.964885E-4,4.5280266E-4,-2.2145508E-5],"split_indices":[2,0,1,5,6,0,0,10,12,0,0,0,0,0,0,0,0,0,0,0,0],"split_type":[0,0,0,0,0,0,0,0,0,0,0,0,0,0,0,0,0,0,0,0,0],"sum_hessian":[2.6E1,1E0,2.5E1,7E0,1.8E1,2E0,5E0,1.2E1,6E0,1E0,4E0,8E0,4E0,5E0,1E0,6E0,2E0,1E0,3E0,5E0,1E0],"tree_param":{"num_deleted":"0","num_feature":"13","num_nodes":"21","size_leaf_vector":"1"}},{"base_weights":[3.6471866E-3,2.6304288E-2,-2.0148244E-3,-2.1796238E-2,5.5880845E-2,-3.7109308E-2,6.566724E-4,7.13563E-2,-1.2253448E-2,-1.0495663E-4,-4.701578E-2,-2.2034645E-5,7.718424E-2,1.2934685E-2,-4.3908923E-4,-6.2051055E-4,-2.8591455E-4,2.1543443E-4,8.002568E-2,1.7748236E-4,1.6537904E-5,8.5814117E-4,3.4055667E-4],"categories":[],"categories_nodes":[],"categories_segments":[],"categories_sizes":[],"default_left":[0,0,0,0,0,0,0,0,0,0,0,0,0,0,0,0,0,0,0,0,0,0,0],"id":30,"left_children":[1,3,-1,5,7,9,-1,11,13,-1,15,-1,17,19,-1,-1,-1,-1,21,-1,-1,-1,-1],"loss_changes":[1.4008148E-1,3.962948E-2,0E0,1.7169544E-2,1.8799316E-2,2.1430114E-3,0E0,6.1719045E-3,3.7573176E-3,0E0,1.6497355E-4,0E0,3.312677E-4,1.3355166E-4,0E0,0E0,0E0,0E0,2.706796E-4,0E0,0E0,0E0,0E0],"parents":[2147483647,0,0,1,1,3,3,4,4,5,5,7,7,8,8,10,10,12,12,13,13,18,18],"right_children":[2,4,-1,6,8,10,-1,12,14,-1,16,-1,18,20,-1,-1,-1,-1,22,-1,-1,-1,-1],"split_conditions":[8.181818E-1,4E-1,-2.0148244E-3,6.181818E-1,7.717391E-1,3.8E-1,6.566724E-4,1E-1,7E-1,-1.0495663E-4,5.308642E-2,-2.2034645E-5,2.6363635E-1,7.3333335E-1,-4.3908923E-4,-6.2051055E-4,-2.8591455E-4,2.1543443E-4,6E-1,1.7748236E-4,1.6537904E-5,8.5814117E-4,3.4055667E-4],"split_indices":[3,1,0,3,10,11,0,11,2,0,5,0,3,1,0,0,0,0,11,0,0,0,0],"split_type":[0,0,0,0,0,0,0,0,0,0,0,0,0,0,0,0,0,0,0,0,0,0,0],"sum_hessian":[2.8E1,2.6E1,2E0,1E1,1.6E1,9E0,1E0,1.3E1,3E0,3E0,6E0,1E0,1.2E1,2E0,1E0,2E0,4E0,1E0,1.1E1,1E0,1E0,9E0,2E0],"tree_param":{"num_deleted":"0","num_feature":"13","num_nodes":"23","size_leaf_vector":"1"}},{"base_weights":[1.6685197E-2,-3.5245728E-3,4.6751853E-2,1.0131303E-2,1.066604E-1,6.5773726E-2,-1.3897315E-2,1.1284743E-3,2.8582124E-4,1.6455351E-5,8.1394386E-4,-3.8641144E-2,9.297013E-3,-1.2608379E-4,-6.047112E-4,-1.5073319E-4,2.205981E-2,2.867098E-4,-2.1924376E-5],"categories":[],"categories_nodes":[],"categories_segments":[],"categories_sizes":[],"default_left":[0,0,0,0,0,0,0,0,0,0,0,0,0,0,0,0,0,0,0],"id":31,"left_children":[1,-1,3,5,7,9,11,-1,-1,-1,-1,13,15,-1,-1,-1,17,-1,-1],"loss_changes":[2.9395005E-1,0E0,5.1572613E-2,2.2306247E-2,1.1222288E-3,4.874686E-3,7.2462456E-3,0E0,0E0,0E0,0E0,2.6473245E-3,2.50975E-3,0E0,0E0,0E0,8.6453813E-4,0E0,0E0],"parents":[2147483647,0,0,2,2,3,3,4,4,5,5,6,6,11,11,12,12,16,16],"right_children":[2,-1,4,6,8,10,12,-1,-1,-1,-1,14,16,-1,-1,-1,18,-1,-1],"split_conditions":[2E-1,-3.5245728E-3,7.1428573E-1,5E-1,1E0,3.0645162E-1,4.2857143E-1,1.1284743E-3,2.8582124E-4,1.6455351E-5,8.1394386E-4,5E-1,2.6666668E-1,-1.2608379E-4,-6.047112E-4,-1.5073319E-4,6.666667E-1,2.867098E-4,-2.1924376E-5],"split_indices":[2,0,6,8,12,0,6,0,0,0,0,10,1,0,0,0,1,0,0],"split_type":[0,0,0,0,0,0,0,0,0,0,0,0,0,0,0,0,0,0,0],"sum_hessian":[2.4E1,1E0,2.3E1,1.5E1,8E0,4E0,1.1E1,7E0,1E0,1E0,3E0,5E0,6E0,3E0,2E0,2E0,4E0,3E0,1E0],"tree_param":{"num_deleted":"0","num_feature":"13","num_nodes":"19","size_leaf_vector":"1"}},{"base_weights":[-8.552724E-3,-3.88053E-3,3.1000847E-2,6.9534183E-3,9.3256164E-4,-4.5010578E-2,2.100156E-2,-1.3576308E-4,-6.144132E-4,-3.3452585E-2,3.4122564E-2,-4.663199E-5,-4.1494647E-4,1.2465233E-2,6.453102E-2,3.2191694E-2,-6.051024E-3,8.0783915E-4,2.1350145E-4,1.6373098E-5,3.942096E-4,-1.444596E-4,1.7961829E-4],"categories":[],"categories_nodes":[],"categories_segments":[],"categories_sizes":[],"default_left":[0,0,0,0,0,0,0,0,0,0,0,0,0,0,0,0,0,0,0,0,0,0,0],"id":32,"left_children":[1,-1,3,5,-1,7,9,-1,-1,11,13,-1,-1,15,17,19,21,-1,-1,-1,-1,-1,-1],"loss_changes":[4.7735825E-1,0E0,4.2766877E-2,1.7005239E-2,0E0,1.7482964E-3,1.4002361E-2,0E0,0E0,7.326063E-4,9.074096E-3,0E0,0E0,3.8473948E-3,2.4861358E-3,1.039885E-3,1.4689943E-3,0E0,0E0,0E0,0E0,0E0,0E0],"parents":[2147483647,0,0,2,2,3,3,5,5,6,6,9,9,10,10,13,13,14,14,15,15,16,16],"right_children":[2,-1,4,6,-1,8,10,-1,-1,12,14,-1,-1,16,18,20,22,-1,-1,-1,-1,-1,-1],"split_conditions":[5.283019E-1,-3.88053E-3,7.1428573E-1,2.7419356E-1,9.3256164E-4,6.981132E-1,2E-1,-1.3576308E-4,-6.144132E-4,4.032258E-1,1.4197531E-1,-4.663199E-5,-4.1494647E-4,5.8064514E-1,1.6790123E-1,3.0645162E-1,9.245283E-1,8.0783915E-4,2.1350145E-4,1.6373098E-5,3.942096E-4,-1.444596E-4,1.7961829E-4],"split_indices":[4,0,6,0,0,4,7,0,0,0,5,0,0,0,5,0,4,0,0,0,0,0,0],"split_type":[0,0,0,0,0,0,0,0,0,0,0,0,0,0,0,0,0,0,0,0,0,0,0],"sum_hessian":[3E1,2E0,2.8E1,2.1E1,7E0,4E0,1.7E1,2E0,2E0,3E0,1.4E1,1E0,2E0,9E0,5E0,4E0,5E0,3E0,2E0,1E0,3E0,4E0,1E0],"tree_param":{"num_deleted":"0","num_feature":"13","num_nodes":"23","size_leaf_vector":"1"}},{"base_weights":[1.785944E-2,-3.4875472E-3,4.4354584E-2,-7.960941E-4,6.316714E-2,8.096864E-2,-3.732125E-3,9.147407E-2,3.3258628E-2,-1.1168957E-2,7.4276924E-3,2.5580704E-4,9.964376E-2,5.5772543E-4,-3.414949E-4,-1.348579E-4,-2.1092295E-5,1.6291142E-5,9.512424E-5,1.1304185E-3,5.559844E-4,-1.1401951E-4,1.0889709E-4],"categories":[],"categories_nodes":[],"categories_segments":[],"categories_sizes":[],"default_left":[0,0,0,0,0,0,0,0,0,0,0,0,0,0,0,0,0,0,0,0,0,0,0],"id":33,"left_children":[1,-1,3,-1,5,7,9,11,13,15,17,-1,19,-1,21,-1,-1,-1,-1,-1,-1,-1,-1],"loss_changes":[2.8744677E-1,0E0,6.799485E-2,0E0,2.8883949E-2,6.4807683E-3,5.809217E-4,5.5259913E-3,3.8013984E-3,5.5514858E-5,2.0768624E-5,0E0,1.3866425E-3,0E0,4.968307E-4,0E0,0E0,0E0,0E0,0E0,0E0,0E0,0E0],"parents":[2147483647,0,0,2,2,4,4,5,5,6,6,7,7,8,8,9,9,10,10,12,12,14,14],"right_children":[2,-1,4,-1,6,8,10,12,14,16,18,-1,20,-1,22,-1,-1,-1,-1,-1,-1,-1,-1],"split_conditions":[5.283019E-1,-3.4875472E-3,5.308642E-2,-7.960941E-4,3.974359E-1,7.419355E-1,6.981132E-1,3.846154E-2,2.4E-1,2.2580644E-1,3.0645162E-1,2.5580704E-4,5.6666666E-1,5.5772543E-4,7.741935E-1,-1.348579E-4,-2.1092295E-5,1.6291142E-5,9.512424E-5,1.1304185E-3,5.559844E-4,-1.1401951E-4,1.0889709E-4],"split_indices":[4,0,5,0,9,0,4,9,11,0,0,0,7,0,0,0,0,0,0,0,0,0,0],"split_type":[0,0,0,0,0,0,0,0,0,0,0,0,0,0,0,0,0,0,0,0,0,0,0],"sum_hessian":[2.7E1,1E0,2.6E1,3E0,2.3E1,1.8E1,5E0,1.4E1,4E0,3E0,2E0,2E0,1.2E1,2E0,2E0,2E0,1E0,1E0,1E0,8E0,4E0,1E0,1E0],"tree_param":{"num_deleted":"0","num_feature":"13","num_nodes":"23","size_leaf_vector":"1"}},{"base_weights":[-1.0095995E-4,2.4471767E-2,-1.966491E-3,-9.5878704E-4,8.6368655E-4,-2.9935913E-2,3.900461E-2,-2.1790862E-3,-5.270342E-2,-2.2316375E-4,6.316433E-2,-9.543359E-3,1.7321139E-4,-6.3892495E-4,1.620978E-5,9.4648596E-5,7.2011255E-2,-2.0986796E-5,-1.0879859E-4,2.0794093E-4,7.961702E-4],"categories":[],"categories_nodes":[],"categories_segments":[],"categories_sizes":[],"default_left":[0,0,0,0,0,0,0,0,0,0,0,0,0,0,0,0,0,0,0,0,0],"id":34,"left_children":[1,3,-1,5,-1,7,9,11,13,-1,15,17,-1,-1,-1,-1,19,-1,-1,-1,-1],"loss_changes":[1.3038518E-1,3.786054E-2,0E0,2.2012077E-2,0E0,6.836647E-3,1.3261582E-2,1.0269317E-3,3.7506055E-3,0E0,2.1688752E-3,2.6915717E-5,0E0,0E0,0E0,0E0,2.9216707E-4,0E0,0E0,0E0,0E0],"parents":[2147483647,0,0,1,1,3,3,5,5,6,6,7,7,8,8,10,10,11,11,16,16],"right_children":[2,4,-1,6,-1,8,10,12,14,-1,16,18,-1,-1,-1,-1,20,-1,-1,-1,-1],"split_conditions":[8.181818E-1,7.1428573E-1,-1.966491E-3,1.4197531E-1,8.6368655E-4,3.8043478E-1,3.3333334E-1,3.8E-1,8E-1,-2.2316375E-4,3.3870968E-1,4E-1,1.7321139E-4,-6.3892495E-4,1.620978E-5,9.4648596E-5,2.6363635E-1,-2.0986796E-5,-1.0879859E-4,2.0794093E-4,7.961702E-4],"split_indices":[3,6,0,5,0,10,1,11,1,0,0,2,0,0,0,0,3,0,0,0,0],"split_type":[0,0,0,0,0,0,0,0,0,0,0,0,0,0,0,0,0,0,0,0,0],"sum_hessian":[2.5E1,2.3E1,2E0,1.7E1,6E0,1E1,7E0,5E0,5E0,2E0,5E0,4E0,1E0,4E0,1E0,1E0,4E0,1E0,3E0,1E0,3E0],"tree_param":{"num_deleted":"0","num_feature":"13","num_nodes":"21","size_leaf_vector":"1"}},{"base_weights":[-2.1259097E-2,-3.8241108E-3,2.6771994E-2,-7.3808193E-4,3.9865736E-2,2.7408812E-3,9.9851E-4,3.849916E-2,-1.05113005E-2,-5.155295E-5,5.476908E-4,-1.9147098E-2,1.8899857E-4,-6.4549684E-3,-2.8009806E-4,-1.0441403E-4,-3.1687816E-6],"categories":[],"categories_nodes":[],"categories_segments":[],"categories_sizes":[],"default_left":[0,0,0,0,0,0,0,0,0,0,0,0,0,0,0,0,0],"id":35,"left_children":[1,-1,3,-1,5,7,-1,9,11,-1,-1,13,-1,15,-1,-1,-1],"loss_changes":[4.4390103E-1,0E0,3.323275E-2,0E0,4.6492152E-2,7.0389295E-3,0E0,3.1233681E-3,3.155754E-3,0E0,0E0,8.3157746E-4,0E0,1.1903678E-4,0E0,0E0,0E0],"parents":[2147483647,0,0,2,2,4,4,5,5,7,7,8,8,11,11,13,13],"right_children":[2,-1,4,-1,6,8,-1,10,12,-1,-1,14,-1,16,-1,-1,-1],"split_conditions":[2E-1,-3.8241108E-3,5.308642E-2,-7.3808193E-4,7.1428573E-1,2.2826087E-1,9.9851E-4,1.2903225E-1,8.913044E-1,-5.155295E-5,5.476908E-4,3E-1,1.8899857E-4,8.6419754E-2,-2.8009806E-4,-1.0441403E-4,-3.1687816E-6],"split_indices":[2,0,5,0,6,10,0,0,10,0,0,11,0,5,0,0,0],"split_type":[0,0,0,0,0,0,0,0,0,0,0,0,0,0,0,0,0],"sum_hessian":[2.4E1,2E0,2.2E1,2E0,2E1,1.3E1,7E0,3E0,1E1,1E0,2E0,8E0,2E0,4E0,4E0,2E0,2E0],"tree_param":{"num_deleted":"0","num_feature":"13","num_nodes":"17","size_leaf_vector":"1"}},{"base_weights":[-8.240422E-3,-3.7986168E-3,4.0590197E-2,-3.6150962E-2,6.391557E-2,-5.098492E-5,-4.1341758E-4,7.543071E-2,-6.5920915E-4,4.8644025E-2,9.948523E-2,8.42007E-4,2.9229768E-2,1.060506E-3,2.6763856E-4,3.6482703E-2,4.9806437E-3,3.9642176E-4,1.0342657E-4,9.557575E-5,-2.0866095E-5],"categories":[],"categories_nodes":[],"categories_segments":[],"categories_sizes":[],"default_left":[0,0,0,0,0,0,0,0,0,0,0,0,0,0,0,0,0,0,0,0,0],"id":36,"left_children":[1,-1,3,5,7,-1,-1,9,-1,11,13,-1,15,-1,-1,17,19,-1,-1,-1,-1],"loss_changes":[4.6908107E-1,0E0,4.3480985E-2,7.5634196E-4,3.1884E-2,0E0,0E0,6.1144307E-3,0E0,4.4418983E-3,9.812191E-4,0E0,1.2253108E-3,0E0,0E0,8.552801E-5,1.1698193E-4,0E0,0E0,0E0,0E0],"parents":[2147483647,0,0,2,2,3,3,4,4,7,7,9,9,10,10,12,12,15,15,16,16],"right_children":[2,-1,4,6,8,-1,-1,10,-1,12,14,-1,16,-1,-1,18,20,-1,-1,-1,-1],"split_conditions":[2E-1,-3.7986168E-3,4E-1,3.8043478E-1,8.181818E-1,-5.098492E-5,-4.1341758E-4,7.1428573E-1,-6.5920915E-4,4.2857143E-1,1E0,8.42007E-4,6.666667E-1,1.060506E-3,2.6763856E-4,5.8064514E-1,3.3870968E-1,3.9642176E-4,1.0342657E-4,9.557575E-5,-2.0866095E-5],"split_indices":[2,0,1,10,3,0,0,6,0,6,12,0,1,0,0,0,0,0,0,0,0],"split_type":[0,0,0,0,0,0,0,0,0,0,0,0,0,0,0,0,0,0,0,0,0],"sum_hessian":[2.4E1,2E0,2.2E1,5E0,1.7E1,1E0,4E0,1.6E1,1E0,9E0,7E0,2E0,7E0,6E0,1E0,5E0,2E0,4E0,1E0,1E0,1E0],"tree_param":{"num_deleted":"0","num_feature":"13","num_nodes":"21","size_leaf_vector":"1"}},{"base_weights":[-1.5905876E-2,-3.7732928E-3,3.192787E-2,-3.395888E-2,5.7179596E-2,-5.104035E-5,-3.7917346E-2,6.925201E-2,-2.2242347E-2,-1.1224478E-4,-4.1011022E-4,7.876253E-2,4.9557486E-3,-4.365447E-4,1.029095E-4,8.703356E-2,2.2181252E-2,9.509802E-5,-2.0761787E-5,3.0254602E-4,9.6289486E-2,4.4411956E-4,-1.1140078E-4,1.0166815E-3,2.6630043E-4],"categories":[],"categories_nodes":[],"categories_segments":[],"categories_sizes":[],"default_left":[0,0,0,0,0,0,0,0,0,0,0,0,0,0,0,0,0,0,0,0,0,0,0,0,0],"id":37,"left_children":[1,-1,3,5,7,-1,9,11,13,-1,-1,15,17,-1,-1,19,21,-1,-1,-1,23,-1,-1,-1,-1],"loss_changes":[4.4425318E-1,0E0,4.0208094E-2,6.060144E-4,1.7840177E-2,0E0,3.5148114E-5,8.782037E-3,2.539067E-3,0E0,0E0,4.153304E-3,1.1581537E-4,0E0,0E0,2.8677583E-3,2.7170228E-3,0E0,0E0,0E0,6.6464394E-4,0E0,0E0,0E0,0E0],"parents":[2147483647,0,0,2,2,3,3,4,4,6,6,7,7,8,8,11,11,12,12,15,15,16,16,20,20],"right_children":[2,-1,4,6,8,-1,10,12,14,-1,-1,16,18,-1,-1,20,22,-1,-1,-1,24,-1,-1,-1,-1],"split_conditions":[2E-1,-3.7732928E-3,4E-1,5.471698E-1,8.4782606E-1,-5.104035E-5,1.2820513E-2,3.974359E-1,8.3870965E-1,-1.1224478E-4,-4.1011022E-4,8.666667E-1,3.3870968E-1,-4.365447E-4,1.029095E-4,3.846154E-2,5.967742E-1,9.509802E-5,-2.0761787E-5,3.0254602E-4,9.622642E-1,4.4411956E-4,-1.1140078E-4,1.0166815E-3,2.6630043E-4],"split_indices":[2,0,1,4,10,0,9,9,0,0,0,1,0,0,0,9,0,0,0,0,4,0,0,0,0],"split_type":[0,0,0,0,0,0,0,0,0,0,0,0,0,0,0,0,0,0,0,0,0,0,0,0,0],"sum_hessian":[2.4E1,2E0,2.2E1,6E0,1.6E1,1E0,5E0,1.4E1,2E0,1E0,4E0,1.2E1,2E0,1E0,1E0,1E1,2E0,1E0,1E0,2E0,8E0,1E0,1E0,7E0,1E0],"tree_param":{"num_deleted":"0","num_feature":"13","num_nodes":"25","size_leaf_vector":"1"}},{"base_weights":[1.2709126E-3,1.768978E-2,-2.2101924E-3,2.8115148E-2,-4.9284875E-2,-1.9108266E-2,5.7723083E-2,-7.253949E-4,1.0239481E-4,-3.524088E-2,6.304264E-4,6.546564E-2,4.930973E-3,-1.3685835E-4,-4.9747754E-2,1.7615377E-4,6.7985214E-2,9.462267E-5,-2.0658075E-5,-5.660051E-4,-1.1168361E-4,2.0066768E-4,7.051718E-4],"categories":[],"categories_nodes":[],"categories_segments":[],"categories_sizes":[],"default_left":[0,0,0,0,0,0,0,0,0,0,0,0,0,0,0,0,0,0,0,0,0,0,0],"id":38,"left_children":[1,3,-1,5,7,9,11,-1,-1,13,-1,15,17,-1,19,-1,21,-1,-1,-1,-1,-1,-1],"loss_changes":[1.0610286E-1,2.023801E-2,0E0,3.4659494E-2,6.2796315E-3,1.547477E-2,5.8083795E-3,0E0,0E0,2.1334263E-3,0E0,3.697239E-4,1.1466063E-4,0E0,6.8974216E-4,0E0,4.0888786E-5,0E0,0E0,0E0,0E0,0E0,0E0],"parents":[2147483647,0,0,1,1,3,3,4,4,5,5,6,6,9,9,11,11,12,12,14,14,16,16],"right_children":[2,4,-1,6,8,10,12,-1,-1,14,-1,16,18,-1,20,-1,22,-1,-1,-1,-1,-1,-1],"split_conditions":[1E0,9.130435E-1,-2.2101924E-3,4E-1,8.3870965E-1,7.1428573E-1,3.974359E-1,-7.253949E-4,1.0239481E-4,4.6E-1,6.304264E-4,1.4285715E-1,3.3870968E-1,-1.3685835E-4,4.8387095E-1,1.7615377E-4,3.846154E-2,9.462267E-5,-2.0658075E-5,-5.660051E-4,-1.1168361E-4,2.0066768E-4,7.051718E-4],"split_indices":[7,10,0,1,0,6,9,0,0,11,0,6,0,0,0,0,9,0,0,0,0,0,0],"split_type":[0,0,0,0,0,0,0,0,0,0,0,0,0,0,0,0,0,0,0,0,0,0,0],"sum_hessian":[2.7E1,2.6E1,1E0,2.3E1,3E0,9E0,1.4E1,2E0,1E0,8E0,1E0,1.2E1,2E0,4E0,4E0,1E0,1.1E1,1E0,1E0,3E0,1E0,1E0,1E1],"tree_param":{"num_deleted":"0","num_feature":"13","num_nodes":"23","size_leaf_vector":"1"}},{"base_weights":[-1.857579E-2,-3.7403142E-3,2.8595632E-2,-2.4264302E-2,5.8405217E-2,5.9907703E-4,-4.2274266E-2,-1.2867376E-2,7.7295646E-2,-4.710376E-5,-5.40105E-2,-4.4626443E-4,1.2594461E-2,1.3456091E-2,9.708038E-2,-6.636795E-4,-1.9530395E-4,1.3643801E-5,1.7527312E-4,2.4594108E-4,-9.9789795E-5,1.0267935E-3,2.6144294E-4],"categories":[],"categories_nodes":[],"categories_segments":[],"categories_sizes":[],"default_left":[0,0,0,0,0,0,0,0,0,0,0,0,0,0,0,0,0,0,0,0,0,0,0],"id":39,"left_children":[1,-1,3,5,7,-1,9,11,13,-1,15,-1,17,19,21,-1,-1,-1,-1,-1,-1,-1,-1],"loss_changes":[4.2987934E-1,0E0,3.7659016E-2,1.6175967E-2,2.1190137E-2,0E0,3.2724598E-3,3.796623E-3,1.3850257E-2,0E0,1.2603253E-3,0E0,1.4227506E-4,1.2895048E-3,8.900389E-4,0E0,0E0,0E0,0E0,0E0,0E0,0E0,0E0],"parents":[2147483647,0,0,2,2,3,3,4,4,6,6,7,7,8,8,10,10,12,12,13,13,14,14],"right_children":[2,-1,4,6,8,-1,10,12,14,-1,16,-1,18,20,22,-1,-1,-1,-1,-1,-1,-1,-1],"split_conditions":[2E-1,-3.7403142E-3,3.3333334E-1,5.1282052E-2,2.857143E-1,5.9907703E-4,6.981132E-1,1.6129032E-2,3.846154E-2,-4.710376E-5,6.2903225E-1,-4.4626443E-4,3.0645162E-1,5.8064514E-1,1E0,-6.636795E-4,-1.9530395E-4,1.3643801E-5,1.7527312E-4,2.4594108E-4,-9.9789795E-5,1.0267935E-3,2.6144294E-4],"split_indices":[2,0,7,9,6,0,4,0,9,0,0,0,0,0,12,0,0,0,0,0,0,0,0],"split_type":[0,0,0,0,0,0,0,0,0,0,0,0,0,0,0,0,0,0,0,0,0,0,0],"sum_hessian":[2.4E1,2E0,2.2E1,8E0,1.4E1,1E0,7E0,3E0,1.1E1,2E0,5E0,1E0,2E0,3E0,8E0,3E0,2E0,1E0,1E0,2E0,1E0,7E0,1E0],"tree_param":{"num_deleted":"0","num_feature":"13","num_nodes":"23","size_leaf_vector":"1"}},{"base_weights":[-4.3936237E-3,-2.18044E-3,1.1024033E-2,-3.4821827E-2,3.457322E-2,-9.845808E-5,-4.411929E-2,5.3255294E-2,-4.8798382E-2,-4.7784965E-2,-1.1062622E-4,6.427926E-2,4.1135848E-3,1.00575686E-4,-7.1769557E-4,-5.573259E-4,-2.1259805E-4,7.367818E-2,2.471213E-2,-4.4957796E-4,8.901536E-5,2.9637435E-4,8.098369E-4,-1.13393064E-4,4.0509045E-4,-2.0319223E-5,1.3575554E-5],"categories":[],"categories_nodes":[],"categories_segments":[],"categories_sizes":[],"default_left":[0,0,0,0,0,0,0,0,0,0,0,0,0,0,0,0,0,0,0,0,0,0,0,0,0,0,0],"id":40,"left_children":[1,-1,3,5,7,-1,9,11,13,15,-1,17,19,-1,-1,-1,-1,21,23,25,-1,-1,-1,-1,-1,-1,-1],"loss_changes":[9.792938E-2,0E0,3.1433616E-2,1.8877471E-3,3.2192305E-2,0E0,3.1959824E-4,8.403361E-3,6.129789E-3,8.000806E-5,0E0,3.0138046E-3,9.139475E-5,0E0,0E0,0E0,0E0,8.172542E-4,2.7373503E-3,1.1336969E-5,0E0,0E0,0E0,0E0,0E0,0E0,0E0],"parents":[2147483647,0,0,2,2,3,3,4,4,6,6,7,7,8,8,9,9,11,11,12,12,17,17,18,18,19,19],"right_children":[2,-1,4,6,8,-1,10,12,14,16,-1,18,20,-1,-1,-1,-1,22,24,26,-1,-1,-1,-1,-1,-1,-1],"split_conditions":[2E-1,-2.18044E-3,4E-1,3.8E-1,9.130435E-1,-9.845808E-5,1E0,3.974359E-1,5.3333336E-1,1.7948718E-1,-1.1062622E-4,8.490566E-1,7E-1,1.00575686E-4,-7.1769557E-4,-5.573259E-4,-2.1259805E-4,3.846154E-2,9.245283E-1,7.3333335E-1,8.901536E-5,2.9637435E-4,8.098369E-4,-1.13393064E-4,4.0509045E-4,-2.0319223E-5,1.3575554E-5],"split_indices":[2,0,1,11,10,0,8,9,1,9,0,4,2,0,0,0,0,9,4,1,0,0,0,0,0,0,0],"split_type":[0,0,0,0,0,0,0,0,0,0,0,0,0,0,0,0,0,0,0,0,0,0,0,0,0,0,0],"sum_hessian":[2.8E1,1E0,2.7E1,9E0,1.8E1,3E0,6E0,1.5E1,3E0,5E0,1E0,1.2E1,3E0,1E0,2E0,3E0,2E0,9E0,3E0,2E0,1E0,2E0,7E0,1E0,2E0,1E0,1E0],"tree_param":{"num_deleted":"0","num_feature":"13","num_nodes":"27","size_leaf_vector":"1"}},{"base_weights":[3.6523808E-2,-2.1033261E-2,6.0598295E-2,-3.922823E-2,6.226325E-4,7.095474E-2,-2.1739801E-2,-1.8513476E-2,-5.531461E-4,1.0379199E-1,5.034103E-2,1.0007292E-4,-4.2616992E-4,-4.7267375E-5,-2.0778476E-4,2.9628992E-4,1.1269879E-3,1.8588234E-2,6.238802E-2,3.9849977E-4,-8.869588E-3,6.587724E-4,1.7237126E-4,-2.0217598E-5,-1.1282622E-4],"categories":[],"categories_nodes":[],"categories_segments":[],"categories_sizes":[],"default_left":[0,0,0,0,0,0,0,0,0,0,0,0,0,0,0,0,0,0,0,0,0,0,0,0,0],"id":41,"left_children":[1,3,5,7,-1,9,11,13,-1,15,17,-1,-1,-1,-1,-1,-1,19,21,-1,23,-1,-1,-1,-1],"loss_changes":[4.0072978E-2,1.6082674E-2,1.859714E-2,1.6417382E-3,0E0,6.95917E-3,2.4148514E-3,5.7920348E-5,0E0,6.241724E-4,3.8131475E-3,0E0,0E0,0E0,0E0,0E0,0E0,3.2724587E-3,2.8233975E-4,0E0,2.6761394E-5,0E0,0E0,0E0,0E0],"parents":[2147483647,0,0,1,1,2,2,3,3,5,5,6,6,7,7,9,9,10,10,17,17,18,18,20,20],"right_children":[2,4,6,8,-1,10,12,14,-1,16,18,-1,-1,-1,-1,-1,-1,20,22,-1,24,-1,-1,-1,-1],"split_conditions":[4E-1,6.181818E-1,9.130435E-1,4.6E-1,6.226325E-4,5E-1,5.3333336E-1,2E-1,-5.531461E-4,4E-1,3.3695653E-1,1.0007292E-4,-4.2616992E-4,-4.7267375E-5,-2.0778476E-4,2.9628992E-4,1.1269879E-3,1.0493827E-1,9.811321E-1,3.9849977E-4,7.3333335E-1,6.587724E-4,1.7237126E-4,-2.0217598E-5,-1.1282622E-4],"split_indices":[1,3,10,11,0,8,1,1,0,2,10,0,0,0,0,0,0,5,4,0,1,0,0,0,0],"split_type":[0,0,0,0,0,0,0,0,0,0,0,0,0,0,0,0,0,0,0,0,0,0,0,0,0],"sum_hessian":[2.7E1,8E0,1.9E1,7E0,1E0,1.7E1,2E0,4E0,3E0,5E0,1.2E1,1E0,1E0,1E0,3E0,1E0,4E0,4E0,8E0,2E0,2E0,7E0,1E0,1E0,1E0],"tree_param":{"num_deleted":"0","num_feature":"13","num_nodes":"25","size_leaf_vector":"1"}},{"base_weights":[-3.3958333E-3,-3.3848388E-3,2.251078E-2,-7.196977E-4,3.33829E-2,-1.8936485E-2,4.8147816E-2,-4.83343E-5,-2.0790409E-4,-1.2917817E-2,6.0404986E-2,4.004827E-4,-4.3922602E-4,-2.0116568E-5,6.470021E-2,1.9959465E-2,7.42221E-2,7.872582E-6,2.608778E-4,7.9159153E-4,9.9572535E-5],"categories":[],"categories_nodes":[],"categories_segments":[],"categories_sizes":[],"default_left":[0,0,0,0,0,0,0,0,0,0,0,0,0,0,0,0,0,0,0,0,0],"id":42,"left_children":[1,-1,3,-1,5,7,9,-1,-1,11,13,-1,-1,-1,15,17,19,-1,-1,-1,-1],"loss_changes":[2.4200645E-1,0E0,2.9109858E-2,0E0,1.9451542E-2,5.6386925E-5,1.5001643E-2,0E0,0E0,8.327833E-3,4.4196434E-3,0E0,0E0,0E0,4.908815E-3,4.4943555E-4,3.0191466E-3,0E0,0E0,0E0,0E0],"parents":[2147483647,0,0,2,2,4,4,5,5,6,6,9,9,10,10,14,14,15,15,16,16],"right_children":[2,-1,4,-1,6,8,10,-1,-1,12,14,-1,-1,-1,16,18,20,-1,-1,-1,-1],"split_conditions":[2E-1,-3.3848388E-3,4.8148148E-2,-7.196977E-4,3.3333334E-1,1.2903225E-1,2E-1,-4.83343E-5,-2.0790409E-4,1.9354838E-1,1E-1,4.004827E-4,-4.3922602E-4,-2.0116568E-5,3.3870968E-1,3.0645162E-1,9.032258E-1,7.872582E-6,2.608778E-4,7.9159153E-4,9.9572535E-5],"split_indices":[2,0,5,0,1,0,7,0,0,0,11,0,0,0,0,0,0,0,0,0,0],"split_type":[0,0,0,0,0,0,0,0,0,0,0,0,0,0,0,0,0,0,0,0,0],"sum_hessian":[2.6E1,1E0,2.5E1,2E0,2.3E1,5E0,1.8E1,1E0,4E0,3E0,1.5E1,1E0,2E0,1E0,1.4E1,3E0,1.1E1,1E0,2E0,1E1,1E0],"tree_param":{"num_deleted":"0","num_feature":"13","num_nodes":"21","size_leaf_vector":"1"}},{"base_weights":[1.1241173E-2,-2.1559072E-3,2.893808E-2,4.676013E-3,9.065825E-2,-5.7115016E-4,1.5305253E-2,9.7406E-4,2.5085866E-4,5.1880465E-4,3.76196E-3,-5.510844E-3,6.2154204E-4,-1.7502807E-2,1.1396915E-2,-2.0227015E-4,7.833242E-6,3.1021395E-4,-6.170675E-5],"categories":[],"categories_nodes":[],"categories_segments":[],"categories_sizes":[],"default_left":[0,0,0,0,0,0,0,0,0,0,0,0,0,0,0,0,0,0,0],"id":43,"left_children":[1,-1,3,5,7,-1,9,-1,-1,-1,11,13,-1,15,17,-1,-1,-1,-1],"loss_changes":[1.1060858E-1,0E0,3.701255E-2,1.33532025E-2,6.5374747E-4,0E0,6.9821994E-3,0E0,0E0,0E0,7.92296E-3,2.8353217E-3,0E0,4.1436614E-4,2.259952E-3,0E0,0E0,0E0,0E0],"parents":[2147483647,0,0,2,2,3,3,4,4,6,6,10,10,11,11,13,13,14,14],"right_children":[2,-1,4,6,8,-1,10,-1,-1,-1,12,14,-1,16,18,-1,-1,-1,-1],"split_conditions":[2E-1,-2.1559072E-3,7.1428573E-1,1.4285715E-1,1E0,-5.7115016E-4,6.415094E-1,9.7406E-4,2.5085866E-4,5.1880465E-4,7.6363635E-1,1E0,6.2154204E-4,8.679245E-1,5.8064514E-1,-2.0227015E-4,7.833242E-6,3.1021395E-4,-6.170675E-5],"split_indices":[2,0,6,6,12,0,4,0,0,0,3,8,0,4,0,0,0,0,0],"split_type":[0,0,0,0,0,0,0,0,0,0,0,0,0,0,0,0,0,0,0],"sum_hessian":[2.5E1,1E0,2.4E1,1.8E1,6E0,2E0,1.6E1,5E0,1E0,3E0,1.3E1,1.2E1,1E0,7E0,5E0,6E0,1E0,2E0,3E0],"tree_param":{"num_deleted":"0","num_feature":"13","num_nodes":"19","size_leaf_vector":"1"}},{"base_weights":[2.9788926E-2,1.2318495E-2,9.1794096E-2,2.6269674E-2,-4.3159686E-2,1.0016874E-3,2.496043E-4,-3.7313537E-3,6.0018744E-2,-7.08309E-4,-1.1019111E-3,2.1080306E-2,-3.7721407E-2,6.9913805E-2,-9.570867E-5,-1.1591166E-4,9.9382996E-5,5.097407E-4,-1.0720134E-3,-4.1853785E-4,-1.0595947E-4,7.503272E-4,1.7040699E-4,-5.4610668E-5,8.2421E-5],"categories":[],"categories_nodes":[],"categories_segments":[],"categories_sizes":[],"default_left":[0,0,0,0,0,0,0,0,0,0,0,0,0,0,0,0,0,0,0,0,0,0,0,0,0],"id":44,"left_children":[1,3,5,7,9,-1,-1,11,13,-1,15,17,19,21,-1,-1,-1,-1,23,-1,-1,-1,-1,-1,-1],"loss_changes":[2.9200431E-2,1.8935472E-2,8.579977E-4,1.9461581E-2,5.7408977E-3,0E0,0E0,1.00720255E-2,6.8664737E-3,0E0,4.6260725E-4,4.6901586E-3,1.1698296E-4,8.8661537E-4,0E0,0E0,0E0,0E0,2.494114E-4,0E0,0E0,0E0,0E0,0E0,0E0],"parents":[2147483647,0,0,1,1,2,2,3,3,4,4,7,7,8,8,10,10,11,11,12,12,13,13,18,18],"right_children":[2,4,6,8,10,-1,-1,12,14,-1,16,18,20,22,-1,-1,-1,-1,24,-1,-1,-1,-1,-1,-1],"split_conditions":[8.5714287E-1,9E-1,1E0,4.4545454E-1,6.2903225E-1,1.0016874E-3,2.496043E-4,7.169811E-1,9.032258E-1,-7.08309E-4,7.741935E-1,5E-1,4.2857143E-1,9.622642E-1,-9.570867E-5,-1.1591166E-4,9.9382996E-5,5.097407E-4,6E-1,-4.1853785E-4,-1.0595947E-4,7.503272E-4,1.7040699E-4,-5.4610668E-5,8.2421E-5],"split_indices":[6,2,12,3,0,0,0,4,0,0,0,8,6,4,0,0,0,0,2,0,0,0,0,0,0],"split_type":[0,0,0,0,0,0,0,0,0,0,0,0,0,0,0,0,0,0,0,0,0,0,0,0,0],"sum_hessian":[2.7E1,2.2E1,5E0,1.8E1,4E0,4E0,1E0,1E1,8E0,2E0,2E0,6E0,4E0,7E0,1E0,1E0,1E0,2E0,4E0,3E0,1E0,6E0,1E0,3E0,1E0],"tree_param":{"num_deleted":"0","num_feature":"13","num_nodes":"25","size_leaf_vector":"1"}},{"base_weights":[-9.439612E-3,-3.6731772E-3,4.213534E-2,9.1716265E-3,9.455492E-2,3.391031E-2,-4.2140067E-2,1.0523745E-1,9.888619E-5,-1.7646626E-2,5.8527086E-2,-5.6195975E-4,-1.403747E-4,2.8450487E-4,1.1329353E-3,-4.470706E-5,-2.0548364E-4,6.890598E-2,-1.8731354E-5,1.5528261E-4,7.6475873E-4],"categories":[],"categories_nodes":[],"categories_segments":[],"categories_sizes":[],"default_left":[0,0,0,0,0,0,0,0,0,0,0,0,0,0,0,0,0,0,0,0,0],"id":45,"left_children":[1,-1,3,5,7,9,11,13,-1,15,17,-1,-1,-1,-1,-1,-1,19,-1,-1,-1],"loss_changes":[4.4000068E-1,0E0,3.5419602E-2,1.9200353E-2,6.194949E-3,1.3724462E-2,1.1861883E-3,1.1069626E-3,0E0,6.106659E-5,4.5172814E-3,0E0,0E0,0E0,0E0,0E0,0E0,1.236843E-3,0E0,0E0,0E0],"parents":[2147483647,0,0,2,2,3,3,4,4,5,5,6,6,7,7,9,9,10,10,17,17],"right_children":[2,-1,4,6,8,10,12,14,-1,16,18,-1,-1,-1,-1,-1,-1,20,-1,-1,-1],"split_conditions":[2E-1,-3.6731772E-3,4.1666666E-1,5.7272726E-1,9.032258E-1,3.3333334E-1,2.5E-1,4E-1,9.888619E-5,2E-1,3.5897437E-1,-5.6195975E-4,-1.403747E-4,2.8450487E-4,1.1329353E-3,-4.470706E-5,-2.0548364E-4,3.846154E-2,-1.8731354E-5,1.5528261E-4,7.6475873E-4],"split_indices":[2,0,7,3,0,1,7,2,0,1,9,0,0,0,0,0,0,9,0,0,0],"split_type":[0,0,0,0,0,0,0,0,0,0,0,0,0,0,0,0,0,0,0,0,0],"sum_hessian":[2.2E1,2E0,2E1,1.3E1,7E0,9E0,4E0,6E0,1E0,3E0,6E0,2E0,2E0,1E0,5E0,1E0,2E0,5E0,1E0,1E0,4E0],"tree_param":{"num_deleted":"0","num_feature":"13","num_nodes":"21","size_leaf_vector":"1"}},{"base_weights":[9.8226415E-3,-2.1305133E-3,2.7986197E-2,-5.7712913E-4,3.8400337E-2,9.526432E-3,8.773887E-2,-1.7148962E-2,2.9215468E-2,9.3338947E-4,2.4269163E-4,-5.8946807E-5,-2.047174E-4,5.5936084E-4,6.5324805E-3,-8.88453E-3,1.6462117E-4,-1.8637777E-5,-1.1463016E-4],"categories":[],"categories_nodes":[],"categories_segments":[],"categories_sizes":[],"default_left":[0,0,0,0,0,0,0,0,0,0,0,0,0,0,0,0,0,0,0],"id":46,"left_children":[1,-1,3,-1,5,7,9,11,13,-1,-1,-1,-1,-1,15,17,-1,-1,-1],"loss_changes":[1.0716708E-1,0E0,2.363578E-2,0E0,3.0505277E-2,8.379207E-3,5.782284E-4,1.4109374E-4,5.08953E-3,0E0,0E0,0E0,0E0,0E0,1.06477E-3,3.294424E-5,0E0,0E0,0E0],"parents":[2147483647,0,0,2,2,4,4,5,5,6,6,7,7,8,8,14,14,15,15],"right_children":[2,-1,4,-1,6,8,10,12,14,-1,-1,-1,-1,-1,16,18,-1,-1,-1],"split_conditions":[5.283019E-1,-2.1305133E-3,1.1666667E-1,-5.7712913E-4,7.1428573E-1,3.3333334E-1,6.8333334E-1,6.603774E-1,6.415094E-1,9.3338947E-4,2.4269163E-4,-5.8946807E-5,-2.047174E-4,5.5936084E-4,3.3333334E-1,6.935484E-1,1.6462117E-4,-1.8637777E-5,-1.1463016E-4],"split_indices":[4,0,7,0,6,1,7,4,4,0,0,0,0,0,7,0,0,0,0],"split_type":[0,0,0,0,0,0,0,0,0,0,0,0,0,0,0,0,0,0,0],"sum_hessian":[2.4E1,1E0,2.3E1,2E0,2.1E1,1.4E1,7E0,6E0,8E0,6E0,1E0,2E0,4E0,3E0,5E0,2E0,3E0,1E0,1E0],"tree_param":{"num_deleted":"0","num_feature":"13","num_nodes":"19","size_leaf_vector":"1"}},{"base_weights":[-1.9278191E-2,-3.634486E-3,2.2793386E-2,-3.485535E-2,4.714875E-2,-1.2645828E-4,-5.3903414E-4,8.111797E-2,-5.4525286E-3,8.960066E-2,-1.8544495E-5,-5.8144867E-2,3.779185E-2,3.0269404E-4,1.0064979E-3,-6.9922686E-4,-1.1405706E-4,6.3415566E-3,5.6644855E-4,9.756863E-5,-2.4452804E-6],"categories":[],"categories_nodes":[],"categories_segments":[],"categories_sizes":[],"default_left":[0,0,0,0,0,0,0,0,0,0,0,0,0,0,0,0,0,0,0,0,0],"id":47,"left_children":[1,-1,3,5,7,-1,-1,9,11,13,-1,15,17,-1,-1,-1,-1,19,-1,-1,-1],"loss_changes":[3.9923862E-1,0E0,3.674478E-2,2.7027335E-3,3.2605138E-2,0E0,0E0,7.908277E-3,2.042658E-2,3.508985E-3,0E0,1.4044233E-3,2.6054461E-3,0E0,0E0,0E0,0E0,6.986632E-5,0E0,0E0,0E0],"parents":[2147483647,0,0,2,2,3,3,4,4,7,7,8,8,9,9,11,11,12,12,17,17],"right_children":[2,-1,4,6,8,-1,-1,10,12,14,-1,16,18,-1,-1,-1,-1,20,-1,-1,-1],"split_conditions":[2E-1,-3.634486E-3,4E-1,4.6E-1,8.490566E-1,-1.2645828E-4,-5.3903414E-4,3.5897437E-1,3.3333334E-1,6.037736E-1,-1.8544495E-5,8E-1,5.272727E-1,3.0269404E-4,1.0064979E-3,-6.9922686E-4,-1.1405706E-4,5.3333336E-1,5.6644855E-4,9.756863E-5,-2.4452804E-6],"split_indices":[2,0,1,11,4,0,0,9,7,4,0,1,3,0,0,0,0,1,0,0,0],"split_type":[0,0,0,0,0,0,0,0,0,0,0,0,0,0,0,0,0,0,0,0,0],"sum_hessian":[2.6E1,2E0,2.4E1,7E0,1.7E1,4E0,3E0,1E1,7E0,9E0,1E0,3E0,4E0,2E0,7E0,2E0,1E0,2E0,2E0,1E0,1E0],"tree_param":{"num_deleted":"0","num_feature":"13","num_nodes":"21","size_leaf_vector":"1"}},{"base_weights":[-5.756154E-3,-3.610256E-3,4.5270726E-2,5.782001E-2,-4.9298327E-2,2.2398066E-2,9.468906E-2,-6.2598824E-4,-1.1348665E-4,-1.8403748E-4,3.3509996E-2,1.0055904E-3,2.3864597E-4,4.8440695E-2,2.7364492E-3,5.66164E-4,2.1392861E-4,-1.3923248E-3,7.5613854E-5,-2.4330616E-6,-1.845181E-5],"categories":[],"categories_nodes":[],"categories_segments":[],"categories_sizes":[],"default_left":[0,0,0,0,0,0,0,0,0,0,0,0,0,0,0,0,0,0,0,0,0],"id":48,"left_children":[1,-1,3,5,7,9,11,-1,-1,-1,13,-1,-1,15,17,-1,-1,19,-1,-1,-1],"loss_changes":[4.3329462E-1,0E0,2.7772687E-2,2.2692643E-2,8.038352E-4,5.6039654E-3,1.3418421E-3,0E0,0E0,0E0,4.002679E-3,0E0,0E0,1.15622766E-4,9.021218E-5,0E0,0E0,1.1120765E-6,0E0,0E0,0E0],"parents":[2147483647,0,0,2,2,3,3,4,4,5,5,6,6,10,10,13,13,14,14,17,17],"right_children":[2,-1,4,6,8,10,12,-1,-1,-1,14,-1,-1,16,18,-1,-1,20,-1,-1,-1],"split_conditions":[2E-1,-3.610256E-3,9E-1,7.1428573E-1,6.2903225E-1,3.3333334E-1,5.6666666E-1,-6.2598824E-4,-1.1348665E-4,-1.8403748E-4,6.666667E-1,1.0055904E-3,2.3864597E-4,4.6666667E-1,7E-1,5.66164E-4,2.1392861E-4,3.0645162E-1,7.5613854E-5,-2.4330616E-6,-1.845181E-5],"split_indices":[2,0,2,6,0,1,7,0,0,0,1,0,0,1,2,0,0,0,0,0,0],"split_type":[0,0,0,0,0,0,0,0,0,0,0,0,0,0,0,0,0,0,0,0,0],"sum_hessian":[2.2E1,2E0,2E1,1.8E1,2E0,1E1,8E0,1E0,1E0,2E0,8E0,7E0,1E0,5E0,3E0,3E0,2E0,2E0,1E0,1E0,1E0],"tree_param":{"num_deleted":"0","num_feature":"13","num_nodes":"21","size_leaf_vector":"1"}},{"base_weights":[-4.2695343E-3,1.8893944E-2,-1.8043302E-3,-5.5879354E-4,2.8676132E-2,1.4429783E-2,7.137849E-4,5.3461947E-2,-1.6925702E-3,-2.4208425E-6,6.694847E-2,-1.2613231E-2,2.6032224E-2,1.7117262E-4,7.785312E-4,-1.729428E-2,1.475811E-4,2.9693922E-4,7.5235665E-5,-1.899708E-4,-1.8359422E-5],"categories":[],"categories_nodes":[],"categories_segments":[],"categories_sizes":[],"default_left":[0,0,0,0,0,0,0,0,0,0,0,0,0,0,0,0,0,0,0,0,0],"id":49,"left_children":[1,3,-1,-1,5,7,-1,9,11,-1,13,15,17,-1,-1,19,-1,-1,-1,-1,-1],"loss_changes":[1.0542308E-1,1.8425673E-2,0E0,0E0,1.1745432E-2,1.0788423E-2,0E0,3.6376119E-3,4.2644003E-3,0E0,8.4093586E-4,1.536497E-3,4.768814E-5,0E0,0E0,2.0202459E-4,0E0,0E0,0E0,0E0,0E0],"parents":[2147483647,0,0,1,1,4,4,5,5,7,7,8,8,10,10,11,11,12,12,15,15],"right_children":[2,4,-1,-1,6,8,-1,10,12,-1,14,16,18,-1,-1,20,-1,-1,-1,-1,-1],"split_conditions":[8.181818E-1,5.308642E-2,-1.8043302E-3,-5.5879354E-4,7.1428573E-1,5E-1,7.137849E-4,1.1481482E-1,4.6666667E-1,-2.4208425E-6,5E-1,5.6E-1,7E-1,1.7117262E-4,7.785312E-4,5.714286E-1,1.475811E-4,2.9693922E-4,7.5235665E-5,-1.899708E-4,-1.8359422E-5],"split_indices":[3,5,0,0,6,8,0,5,7,0,2,11,2,0,0,6,0,0,0,0,0],"split_type":[0,0,0,0,0,0,0,0,0,0,0,0,0,0,0,0,0,0,0,0,0],"sum_hessian":[2.4E1,2.2E1,2E0,2E0,2E1,1.6E1,4E0,4E0,1.2E1,1E0,3E0,9E0,3E0,1E0,2E0,8E0,1E0,2E0,1E0,7E0,1E0],"tree_param":{"num_deleted":"0","num_feature":"13","num_nodes":"21","size_leaf_vector":"1"}},{"base_weights":[-1.4564489E-2,-3.57954E-3,3.0858684E-2,-2.4216788E-2,5.1721603E-2,-5.5506825E-4,-5.994082E-4,6.0145307E-2,-4.152882E-4,-8.691385E-5,1.5884251E-4,-1.7165302E-4,6.6443704E-2,7.5795166E-2,3.7727952E-3,2.8525962E-4,8.712333E-2,-1.826763E-5,7.4859556E-5,3.449871E-4,9.596714E-4],"categories":[],"categories_nodes":[],"categories_segments":[],"categories_sizes":[],"default_left":[0,0,0,0,0,0,0,0,0,0,0,0,0,0,0,0,0,0,0,0,0],"id":50,"left_children":[1,-1,3,5,7,-1,9,11,-1,-1,-1,-1,13,15,17,-1,19,-1,-1,-1,-1],"loss_changes":[4.00992E-1,0E0,2.768034E-2,5.1396503E-3,1.5851501E-2,0E0,8.04983E-4,8.931451E-3,0E0,0E0,0E0,0E0,8.505009E-3,4.4758692E-3,7.605125E-5,0E0,1.3432801E-3,0E0,0E0,0E0,0E0],"parents":[2147483647,0,0,2,2,3,3,4,4,6,6,7,7,12,12,13,13,14,14,16,16],"right_children":[2,-1,4,6,8,-1,10,12,-1,-1,-1,-1,14,16,18,-1,20,-1,-1,-1,-1],"split_conditions":[5.283019E-1,-3.57954E-3,9.135803E-2,5.308642E-2,8.4782606E-1,-5.5506825E-4,3.3333334E-1,3.3333334E-1,-4.152882E-4,-8.691385E-5,1.5884251E-4,-1.7165302E-4,3.0769232E-1,3.846154E-2,7.3333335E-1,2.8525962E-4,1.1111111E-1,-1.826763E-5,7.4859556E-5,3.449871E-4,9.596714E-4],"split_indices":[4,0,5,5,10,0,1,1,0,0,0,0,9,9,1,0,5,0,0,0,0],"split_type":[0,0,0,0,0,0,0,0,0,0,0,0,0,0,0,0,0,0,0,0,0],"sum_hessian":[2.4E1,2E0,2.2E1,6E0,1.6E1,2E0,4E0,1.5E1,1E0,3E0,1E0,1E0,1.4E1,1.2E1,2E0,3E0,9E0,1E0,1E0,2E0,7E0],"tree_param":{"num_deleted":"0","num_feature":"13","num_nodes":"21","size_leaf_vector":"1"}},{"base_weights":[-1.6568169E-2,-3.5556762E-3,2.0344922E-2,-7.190566E-4,3.429122E-2,9.921363E-3,9.553922E-4,-1.0835017E-2,3.981576E-2,3.794568E-3,-2.609703E-2,-1.7079472E-4,5.0383575E-2,-1.1086857E-4,2.7332088E-4,-4.3175617E-4,-6.763831E-3,7.6694286E-4,2.4520433E-2,-1.2339155E-5,-1.1676788E-4,7.4485244E-5,2.692628E-4],"categories":[],"categories_nodes":[],"categories_segments":[],"categories_sizes":[],"default_left":[0,0,0,0,0,0,0,0,0,0,0,0,0,0,0,0,0,0,0,0,0,0,0],"id":51,"left_children":[1,-1,3,-1,5,7,-1,9,11,13,15,-1,17,-1,-1,-1,19,-1,21,-1,-1,-1,-1],"loss_changes":[3.8263953E-1,0E0,3.848924E-2,0E0,3.6367245E-2,1.2220894E-2,0E0,2.77835E-3,5.670593E-3,2.7549297E-3,1.6890699E-3,0E0,2.8827675E-3,0E0,0E0,0E0,9.426479E-5,0E0,4.800735E-6,0E0,0E0,0E0,0E0],"parents":[2147483647,0,0,2,2,4,4,5,5,7,7,8,8,9,9,10,10,12,12,16,16,18,18],"right_children":[2,-1,4,-1,6,8,-1,10,12,14,16,-1,18,-1,-1,-1,20,-1,22,-1,-1,-1,-1],"split_conditions":[5.283019E-1,-3.5556762E-3,5.308642E-2,-7.190566E-4,7.1428573E-1,1.4197531E-1,9.553922E-4,1.07407406E-1,3.3333334E-1,3.3333334E-1,5E-1,-1.7079472E-4,4.2857143E-1,-1.1086857E-4,2.7332088E-4,-4.3175617E-4,6.935484E-1,7.6694286E-4,3.3870968E-1,-1.2339155E-5,-1.1676788E-4,7.4485244E-5,2.692628E-4],"split_indices":[4,0,5,0,6,5,0,5,1,1,12,0,6,0,0,0,0,0,0,0,0,0,0],"split_type":[0,0,0,0,0,0,0,0,0,0,0,0,0,0,0,0,0,0,0,0,0,0,0],"sum_hessian":[2.9E1,2E0,2.7E1,3E0,2.4E1,1.8E1,6E0,1.1E1,7E0,6E0,5E0,1E0,6E0,4E0,2E0,2E0,3E0,2E0,4E0,2E0,1E0,1E0,3E0],"tree_param":{"num_deleted":"0","num_feature":"13","num_nodes":"23","size_leaf_vector":"1"}},{"base_weights":[-5.8378754E-3,-2.0389392E-3,8.51748E-3,-7.136635E-4,2.0958195E-2,-2.0104613E-2,3.4983534E-2,-5.389869E-5,-2.4912535E-4,4.794652E-2,-1.0902131E-2,-1.8114744E-5,5.1630054E-2,1.6978919E-4,-3.5149138E-4,5.560576E-4,-2.7060509E-7],"categories":[],"categories_nodes":[],"categories_segments":[],"categories_sizes":[],"default_left":[0,0,0,0,0,0,0,0,0,0,0,0,0,0,0,0,0],"id":52,"left_children":[1,-1,3,-1,5,7,9,-1,-1,11,13,-1,15,-1,-1,-1,-1],"loss_changes":[8.418844E-2,0E0,2.9322445E-2,0E0,1.5101327E-2,3.6095618E-4,1.1824204E-2,0E0,0E0,2.84281E-3,3.9769546E-3,0E0,2.8767288E-3,0E0,0E0,0E0,0E0],"parents":[2147483647,0,0,2,2,4,4,5,5,6,6,9,9,10,10,12,12],"right_children":[2,-1,4,-1,6,8,10,-1,-1,12,14,-1,16,-1,-1,-1,-1],"split_conditions":[2E-1,-2.0389392E-3,5.308642E-2,-7.136635E-4,4E-1,6.603774E-1,7.419355E-1,-5.389869E-5,-2.4912535E-4,1E-1,7.3333335E-1,-1.8114744E-5,1E0,1.6978919E-4,-3.5149138E-4,5.560576E-4,-2.7060509E-7],"split_indices":[2,0,5,0,1,4,0,0,0,11,1,0,1,0,0,0,0],"split_type":[0,0,0,0,0,0,0,0,0,0,0,0,0,0,0,0,0],"sum_hessian":[2.8E1,1E0,2.7E1,3E0,2.4E1,6E0,1.8E1,2E0,4E0,1.4E1,4E0,1E0,1.3E1,2E0,2E0,1.2E1,1E0],"tree_param":{"num_deleted":"0","num_feature":"13","num_nodes":"17","size_leaf_vector":"1"}},{"base_weights":[1.045159E-2,-2.0287444E-3,2.6459299E-2,-3.2985806E-2,5.4711893E-2,-8.453831E-5,-4.3842822E-2,6.903736E-2,-1.268661E-2,-5.2187114E-4,-1.8102824E-4,2.4036309E-2,8.913426E-2,1.0370891E-2,-4.0929555E-4,4.2676998E-4,-8.830051E-3,9.773256E-4,3.6494056E-4,-2.6911496E-7,1.5583247E-4,-1.8024146E-5,-1.1442661E-4],"categories":[],"categories_nodes":[],"categories_segments":[],"categories_sizes":[],"default_left":[0,0,0,0,0,0,0,0,0,0,0,0,0,0,0,0,0,0,0,0,0,0,0],"id":53,"left_children":[1,-1,3,5,7,-1,9,11,13,-1,-1,15,17,19,-1,-1,21,-1,-1,-1,-1,-1,-1],"loss_changes":[9.756916E-2,0E0,4.547115E-2,2.0264573E-3,1.8255126E-2,0E0,3.4395792E-4,1.1423267E-2,3.029323E-3,0E0,0E0,4.0527503E-3,9.5950067E-4,1.6301053E-4,0E0,0E0,3.4457E-5,0E0,0E0,0E0,0E0,0E0,0E0],"parents":[2147483647,0,0,2,2,3,3,4,4,6,6,7,7,8,8,11,11,12,12,13,13,16,16],"right_children":[2,-1,4,6,8,-1,10,12,14,-1,-1,16,18,20,-1,-1,22,-1,-1,-1,-1,-1,-1],"split_conditions":[2E-1,-2.0287444E-3,4E-1,3.8E-1,8.4782606E-1,-8.453831E-5,4.8387095E-1,3.3695653E-1,8.2258064E-1,-5.2187114E-4,-1.8102824E-4,6.666667E-1,6E-1,3.0645162E-1,-4.0929555E-4,4.2676998E-4,6.935484E-1,9.773256E-4,3.6494056E-4,-2.6911496E-7,1.5583247E-4,-1.8024146E-5,-1.1442661E-4],"split_indices":[2,0,1,11,10,0,0,10,0,0,0,1,11,0,0,0,0,0,0,0,0,0,0],"split_type":[0,0,0,0,0,0,0,0,0,0,0,0,0,0,0,0,0,0,0,0,0,0,0],"sum_hessian":[2.6E1,1E0,2.5E1,8E0,1.7E1,3E0,5E0,1.4E1,3E0,3E0,2E0,5E0,9E0,2E0,1E0,3E0,2E0,7E0,2E0,1E0,1E0,1E0,1E0],"tree_param":{"num_deleted":"0","num_feature":"13","num_nodes":"23","size_leaf_vector":"1"}},{"base_weights":[-3.2124505E-3,2.1984655E-2,-1.617233E-1,4.5079414E-2,-8.685012E-3,-2.0186005E-3,-4.0724903E-4,7.562397E-2,1.6821964E-2,-5.3833704E-4,1.1905142E-2,1.6263008E-4,8.639845E-4,-1.2380958E-3,4.1314738E-4,-5.8499426E-3,2.668394E-4,-4.869908E-5,6.644577E-5,1.3913601E-4,-1.7075657E-4],"categories":[],"categories_nodes":[],"categories_segments":[],"categories_sizes":[],"default_left":[0,0,0,0,0,0,0,0,0,0,0,0,0,0,0,0,0,0,0,0,0],"id":54,"left_children":[1,3,5,7,9,-1,-1,11,13,-1,15,-1,-1,17,-1,19,-1,-1,-1,-1,-1],"loss_changes":[8.742974E-2,1.3849381E-2,6.3487217E-3,8.222077E-3,9.007464E-3,0E0,0E0,1.7928202E-3,3.1475388E-3,0E0,1.9928915E-3,0E0,0E0,1.7550042E-4,0E0,1.1250236E-3,0E0,0E0,0E0,0E0,0E0],"parents":[2147483647,0,0,1,1,2,2,3,3,4,4,7,7,8,8,10,10,13,13,15,15],"right_children":[2,4,6,8,10,-1,-1,12,14,-1,16,-1,-1,18,-1,20,-1,-1,-1,-1,-1],"split_conditions":[7.2727275E-1,7.54717E-1,3.548387E-1,8.974359E-2,2.7419356E-1,-2.0186005E-3,-4.0724903E-4,5E-1,4.4545454E-1,-5.3833704E-4,4.1666666E-1,1.6263008E-4,8.639845E-4,6E-1,4.1314738E-4,5.8064514E-1,2.668394E-4,-4.869908E-5,6.644577E-5,1.3913601E-4,-1.7075657E-4],"split_indices":[3,4,0,9,0,0,0,2,3,0,7,0,0,2,0,0,0,0,0,0,0],"split_type":[0,0,0,0,0,0,0,0,0,0,0,0,0,0,0,0,0,0,0,0,0],"sum_hessian":[2E1,1.8E1,2E0,1E1,8E0,1E0,1E0,4E0,6E0,2E0,6E0,1E0,3E0,4E0,2E0,3E0,3E0,3E0,1E0,1E0,2E0],"tree_param":{"num_deleted":"0","num_feature":"13","num_nodes":"21","size_leaf_vector":"1"}},{"base_weights":[1.3239507E-2,3.7096404E-2,-1.7407654E-3,4.5322776E-3,9.7587606E-4,-1.3419266E-2,4.6709526E-2,-3.2126367E-2,1.06422305E-2,2.3546617E-3,7.549455E-4,-4.833385E-5,-5.1387755E-4,3.4678518E-4,-1.0045543E-2,-1.2649715E-4,1.6181706E-4,-1.3287265E-4,-1.6018748E-6],"categories":[],"categories_nodes":[],"categories_segments":[],"categories_sizes":[],"default_left":[0,0,0,0,0,0,0,0,0,0,0,0,0,0,0,0,0,0,0],"id":55,"left_children":[1,3,-1,5,-1,7,9,11,13,15,-1,-1,-1,-1,17,-1,-1,-1,-1],"loss_changes":[1.18177116E-1,4.4864103E-2,0E0,1.2741155E-2,0E0,5.7433466E-3,6.206014E-3,3.4315283E-3,3.3319085E-3,8.2709256E-4,0E0,0E0,0E0,0E0,1.260539E-4,0E0,0E0,0E0,0E0],"parents":[2147483647,0,0,1,1,3,3,5,5,6,6,7,7,8,8,9,9,14,14],"right_children":[2,4,-1,6,-1,8,10,12,14,16,-1,-1,-1,-1,18,-1,-1,-1,-1],"split_conditions":[8.181818E-1,7.1428573E-1,-1.7407654E-3,1.4197531E-1,9.7587606E-4,2.5E-1,5E-1,3.6363637E-1,8.301887E-1,2.6666668E-1,7.549455E-4,-4.833385E-5,-5.1387755E-4,3.4678518E-4,1E0,-1.2649715E-4,1.6181706E-4,-1.3287265E-4,-1.6018748E-6],"split_indices":[3,6,0,5,0,7,12,3,4,1,0,0,0,0,1,0,0,0,0],"split_type":[0,0,0,0,0,0,0,0,0,0,0,0,0,0,0,0,0,0,0],"sum_hessian":[2.4E1,2.2E1,2E0,1.5E1,7E0,1.1E1,4E0,6E0,5E0,2E0,2E0,3E0,3E0,2E0,3E0,1E0,1E0,2E0,1E0],"tree_param":{"num_deleted":"0","num_feature":"13","num_nodes":"19","size_leaf_vector":"1"}},{"base_weights":[-2.612497E-2,-3.493278E-3,1.7167792E-2,-3.253481E-2,4.5844834E-2,-8.266017E-5,-4.329154E-2,5.319085E-2,-1.2695193E-3,-4.784536E-4,-1.0261207E-4,6.1686356E-2,1.8654376E-2,-1.5938282E-6,-1.7448961E-5,2.9797756E-4,7.7979125E-2,3.228275E-2,-1.1115372E-4,1.6100793E-4,8.7134633E-4,3.9015053E-4,9.40907E-5],"categories":[],"categories_nodes":[],"categories_segments":[],"categories_sizes":[],"default_left":[0,0,0,0,0,0,0,0,0,0,0,0,0,0,0,0,0,0,0,0,0,0,0],"id":56,"left_children":[1,-1,3,5,7,-1,9,11,13,-1,-1,15,17,-1,-1,-1,19,21,-1,-1,-1,-1,-1],"loss_changes":[3.558058E-1,0E0,3.4273997E-2,1.9916268E-3,5.2590705E-3,0E0,4.1153468E-4,2.6635416E-3,1.3050931E-6,0E0,0E0,2.8719343E-3,1.9816877E-3,0E0,0E0,0E0,1.9962266E-3,9.488221E-5,0E0,0E0,0E0,0E0,0E0],"parents":[2147483647,0,0,2,2,3,3,4,4,6,6,7,7,8,8,11,11,12,12,16,16,17,17],"right_children":[2,-1,4,6,8,-1,10,12,14,-1,-1,16,18,-1,-1,-1,20,22,-1,-1,-1,-1,-1],"split_conditions":[2E-1,-3.493278E-3,4E-1,3.8E-1,3.974359E-1,-8.266017E-5,1E0,9E-1,3.0645162E-1,-4.784536E-4,-1.0261207E-4,1.07407406E-1,5.090909E-1,-1.5938282E-6,-1.7448961E-5,2.9797756E-4,5E-1,5.967742E-1,-1.1115372E-4,1.6100793E-4,8.7134633E-4,3.9015053E-4,9.40907E-5],"split_indices":[2,0,1,11,9,0,8,2,0,0,0,5,3,0,0,0,2,0,0,0,0,0,0],"split_type":[0,0,0,0,0,0,0,0,0,0,0,0,0,0,0,0,0,0,0,0,0,0,0],"sum_hessian":[2.4E1,2E0,2.2E1,8E0,1.4E1,3E0,5E0,1.2E1,2E0,4E0,1E0,9E0,3E0,1E0,1E0,4E0,5E0,2E0,1E0,1E0,4E0,1E0,1E0],"tree_param":{"num_deleted":"0","num_feature":"13","num_nodes":"23","size_leaf_vector":"1"}},{"base_weights":[3.4043133E-2,-2.1311842E-2,6.1296243E-2,-3.9582703E-2,5.3292094E-4,8.56601E-3,7.969215E-2,-8.969709E-3,-6.030002E-4,-1.0209888E-4,1.5812456E-4,3.857596E-4,9.028872E-2,-1.0802169E-4,-1.736164E-5,1.0037791E-3,4.0014088E-4],"categories":[],"categories_nodes":[],"categories_segments":[],"categories_sizes":[],"default_left":[0,0,0,0,0,0,0,0,0,0,0,0,0,0,0,0,0],"id":57,"left_children":[1,3,5,7,-1,9,11,13,-1,-1,-1,-1,15,-1,-1,-1,-1],"loss_changes":[3.449543E-2,1.3014071E-2,1.3867658E-2,3.8986607E-3,0E0,8.417361E-4,1.3096184E-3,3.4266413E-5,0E0,0E0,0E0,0E0,4.132092E-5,0E0,0E0,0E0,0E0],"parents":[2147483647,0,0,1,1,2,2,3,3,5,5,6,6,7,7,12,12],"right_children":[2,4,6,8,-1,10,12,14,-1,-1,-1,-1,16,-1,-1,-1,-1],"split_conditions":[2.6666668E-1,6.935484E-1,4.4545454E-1,3.4545454E-1,5.3292094E-4,2.6666668E-1,5.3333336E-1,2.2580644E-1,-6.030002E-4,-1.0209888E-4,1.5812456E-4,3.857596E-4,9.622642E-1,-1.0802169E-4,-1.736164E-5,1.0037791E-3,4.0014088E-4],"split_indices":[7,0,3,3,0,1,1,0,0,0,0,0,4,0,0,0,0],"split_type":[0,0,0,0,0,0,0,0,0,0,0,0,0,0,0,0,0],"sum_hessian":[2.1E1,7E0,1.4E1,6E0,1E0,4E0,1E1,3E0,3E0,1E0,3E0,3E0,7E0,2E0,1E0,5E0,2E0],"tree_param":{"num_deleted":"0","num_feature":"13","num_nodes":"17","size_leaf_vector":"1"}},{"base_weights":[-1.6158376E-2,-3.4692655E-3,2.418014E-2,-1.6676718E-2,5.7473153E-2,6.608796E-4,-3.9838452E-2,-1.2662033E-4,7.021752E-2,-8.572769E-3,-5.9253443E-2,7.672102E-2,-6.6047905E-6,-1.7274915E-5,-9.8522156E-5,-6.4264797E-4,-1.7098337E-4,8.620994E-2,2.268058E-4,2.3693382E-4,9.106284E-2,9.635547E-4,2.700719E-4],"categories":[],"categories_nodes":[],"categories_segments":[],"categories_sizes":[],"default_left":[0,0,0,0,0,0,0,0,0,0,0,0,0,0,0,0,0,0,0,0,0,0,0],"id":58,"left_children":[1,-1,3,5,7,-1,9,-1,11,13,15,17,-1,-1,-1,-1,-1,19,-1,-1,21,-1,-1],"loss_changes":[3.686416E-1,0E0,3.496466E-2,2.5636522E-2,1.3402693E-2,0E0,5.5622645E-3,0E0,5.582139E-3,2.6771217E-5,1.6870536E-4,3.6853403E-3,0E0,0E0,0E0,0E0,0E0,5.7289004E-4,0E0,0E0,1.09896064E-4,0E0,0E0],"parents":[2147483647,0,0,2,2,3,3,4,4,6,6,8,8,9,9,10,10,11,11,17,17,20,20],"right_children":[2,-1,4,6,8,-1,10,-1,12,14,16,18,-1,-1,-1,-1,-1,20,-1,-1,22,-1,-1],"split_conditions":[2E-1,-3.4692655E-3,2.6666668E-1,8.974359E-2,2.5641026E-2,6.608796E-4,6.981132E-1,-1.2662033E-4,3.974359E-1,1E-1,1.345679E-1,1E0,-6.6047905E-6,-1.7274915E-5,-9.8522156E-5,-6.4264797E-4,-1.7098337E-4,6.226415E-1,2.268058E-4,2.3693382E-4,6E-1,9.635547E-4,2.700719E-4],"split_indices":[2,0,7,9,9,0,4,0,9,11,5,12,0,0,0,0,0,4,0,0,11,0,0],"split_type":[0,0,0,0,0,0,0,0,0,0,0,0,0,0,0,0,0,0,0,0,0,0,0],"sum_hessian":[2.6E1,2E0,2.4E1,1.1E1,1.3E1,2E0,9E0,2E0,1.1E1,4E0,5E0,1E1,1E0,1E0,3E0,4E0,1E0,8E0,2E0,1E0,7E0,6E0,1E0],"tree_param":{"num_deleted":"0","num_feature":"13","num_nodes":"23","size_leaf_vector":"1"}},{"base_weights":[-1.404047E-3,-3.2022854E-3,2.5223164E-2,-6.622686E-4,3.6547113E-2,-1.7876089E-2,4.9634274E-2,3.4759162E-4,-3.972469E-4,5.613556E-2,-1.5840133E-5,-1.0095537E-4,6.1224002E-2,7.065264E-2,1.7632097E-2,2.432086E-4,7.7486906E-4,3.1538444E-4,-1.2043476E-4],"categories":[],"categories_nodes":[],"categories_segments":[],"categories_sizes":[],"default_left":[0,0,0,0,0,0,0,0,0,0,0,0,0,0,0,0,0,0,0],"id":59,"left_children":[1,-1,3,-1,5,7,9,-1,-1,11,-1,-1,13,15,17,-1,-1,-1,-1],"loss_changes":[2.2031236E-1,0E0,2.7274214E-2,0E0,1.655666E-2,7.130831E-3,6.0826465E-3,0E0,0E0,6.0102977E-3,0E0,0E0,4.919436E-3,1.9151755E-3,2.0305482E-3,0E0,0E0,0E0,0E0],"parents":[2147483647,0,0,2,2,4,4,5,5,6,6,9,9,12,12,13,13,14,14],"right_children":[2,-1,4,-1,6,8,10,-1,-1,12,-1,-1,14,16,18,-1,-1,-1,-1],"split_conditions":[2E-1,-3.2022854E-3,4.8148148E-2,-6.622686E-4,2E-1,1.9354838E-1,3.974359E-1,3.4759162E-4,-3.972469E-4,2.6666668E-1,-1.5840133E-5,-1.0095537E-4,9E-1,3.846154E-2,5.090909E-1,2.432086E-4,7.7486906E-4,3.1538444E-4,-1.2043476E-4],"split_indices":[2,0,5,0,7,0,9,0,0,1,0,0,2,9,3,0,0,0,0],"split_type":[0,0,0,0,0,0,0,0,0,0,0,0,0,0,0,0,0,0,0],"sum_hessian":[2.4E1,1E0,2.3E1,2E0,2.1E1,4E0,1.7E1,1E0,3E0,1.5E1,2E0,1E0,1.4E1,1.1E1,3E0,2E0,9E0,2E0,1E0],"tree_param":{"num_deleted":"0","num_feature":"13","num_nodes":"19","size_leaf_vector":"1"}},{"base_weights":[1.2909827E-3,-1.9509087E-3,1.6949892E-2,-6.842133E-4,3.1701483E-2,7.0381016E-3,8.354615E-2,-3.311201E-2,2.3180807E-2,9.0637075E-4,2.0500273E-4,-3.9265455E-5,-3.9426744E-4,-1.397099E-4,3.2008268E-2,4.3168455E-2,-8.4216595E-3,6.787239E-4,1.4771616E-4,-6.4924357E-6,-1.1983245E-4],"categories":[],"categories_nodes":[],"categories_segments":[],"categories_sizes":[],"default_left":[0,0,0,0,0,0,0,0,0,0,0,0,0,0,0,0,0,0,0,0,0],"id":60,"left_children":[1,-1,3,-1,5,7,9,11,13,-1,-1,-1,-1,-1,15,17,19,-1,-1,-1,-1],"loss_changes":[8.326004E-2,0E0,3.3653095E-2,0E0,2.7542617E-2,1.1137667E-2,1.2712926E-3,7.6668104E-4,4.3826587E-3,0E0,0E0,0E0,0E0,0E0,4.875606E-3,4.6095243E-3,7.526632E-5,0E0,0E0,0E0,0E0],"parents":[2147483647,0,0,2,2,4,4,5,5,6,6,7,7,8,8,14,14,15,15,16,16],"right_children":[2,-1,4,-1,6,8,10,12,14,-1,-1,-1,-1,-1,16,18,20,-1,-1,-1,-1],"split_conditions":[2E-1,-1.9509087E-3,5.308642E-2,-6.842133E-4,7.1428573E-1,2E-1,5.6666666E-1,1.2903225E-1,2.6666668E-1,9.0637075E-4,2.0500273E-4,-3.9265455E-5,-3.9426744E-4,-1.397099E-4,8.666667E-1,5.714286E-1,3.0645162E-1,6.787239E-4,1.4771616E-4,-6.4924357E-6,-1.1983245E-4],"split_indices":[2,0,5,0,6,7,7,0,1,0,0,0,0,0,1,6,0,0,0,0,0],"split_type":[0,0,0,0,0,0,0,0,0,0,0,0,0,0,0,0,0,0,0,0,0],"sum_hessian":[2.5E1,1E0,2.4E1,3E0,2.1E1,1.5E1,6E0,4E0,1.1E1,5E0,1E0,1E0,3E0,2E0,9E0,7E0,2E0,3E0,4E0,1E0,1E0],"tree_param":{"num_deleted":"0","num_feature":"13","num_nodes":"21","size_leaf_vector":"1"}},{"base_weights":[-1.2501114E-2,-3.4117822E-3,3.5048053E-2,4.9083784E-2,-6.5527594E-4,2.5967814E-2,8.5001476E-2,-3.4607768E-3,3.9431717E-2,9.236913E-4,2.0397782E-4,-1.1266336E-4,1.388073E-4,-1.6617059E-4,4.8514947E-2,-1.7847717E-5,5.595559E-2,1.2445419E-4,6.1133044E-4],"categories":[],"categories_nodes":[],"categories_segments":[],"categories_sizes":[],"default_left":[0,0,0,0,0,0,0,0,0,0,0,0,0,0,0,0,0,0,0],"id":61,"left_children":[1,-1,3,5,-1,7,9,11,13,-1,-1,-1,-1,-1,15,-1,17,-1,-1],"loss_changes":[3.714091E-1,0E0,3.2861054E-2,1.3567872E-2,0E0,5.2873734E-3,1.4477223E-3,8.3318574E-4,5.388111E-3,0E0,0E0,0E0,0E0,0E0,3.0939654E-3,0E0,8.16077E-4,0E0,0E0],"parents":[2147483647,0,0,2,2,3,3,5,5,6,6,7,7,8,8,14,14,16,16],"right_children":[2,-1,4,6,-1,8,10,12,14,-1,-1,-1,-1,-1,16,-1,18,-1,-1],"split_conditions":[2E-1,-3.4117822E-3,9.130435E-1,7.1428573E-1,-6.5527594E-4,9.506173E-2,1E0,6E-1,2.5454545E-1,9.236913E-4,2.0397782E-4,-1.1266336E-4,1.388073E-4,-1.6617059E-4,1E-1,-1.7847717E-5,1.0493827E-1,1.2445419E-4,6.1133044E-4],"split_indices":[2,0,10,6,0,5,12,2,3,0,0,0,0,0,11,0,5,0,0],"split_type":[0,0,0,0,0,0,0,0,0,0,0,0,0,0,0,0,0,0,0],"sum_hessian":[2.2E1,2E0,2E1,1.8E1,2E0,1.2E1,6E0,4E0,8E0,5E0,1E0,3E0,1E0,1E0,7E0,1E0,6E0,1E0,5E0],"tree_param":{"num_deleted":"0","num_feature":"13","num_nodes":"19","size_leaf_vector":"1"}},{"base_weights":[4.6037746E-4,-3.1594606E-3,2.4781628E-2,-6.77509E-4,3.979678E-2,1.7840907E-2,7.873393E-2,-2.1042913E-2,2.8432783E-2,8.4182835E-4,2.0295798E-4,-3.850579E-5,-2.5490165E-4,9.464462E-3,5.68892E-2,3.0648365E-4,-6.2355497E-3,6.6478667E-4,9.265661E-5,-1.3007187E-4,1.381132E-4],"categories":[],"categories_nodes":[],"categories_segments":[],"categories_sizes":[],"default_left":[0,0,0,0,0,0,0,0,0,0,0,0,0,0,0,0,0,0,0,0,0],"id":62,"left_children":[1,-1,3,-1,5,7,9,11,13,-1,-1,-1,-1,15,17,-1,19,-1,-1,-1,-1],"loss_changes":[2.1560547E-1,0E0,3.882041E-2,0E0,1.8257994E-2,7.18795E-3,8.388348E-4,2.076826E-4,6.478589E-3,0E0,0E0,0E0,0E0,3.1843972E-3,1.667453E-3,0E0,9.941473E-4,0E0,0E0,0E0,0E0],"parents":[2147483647,0,0,2,2,4,4,5,5,6,6,7,7,8,8,13,13,14,14,16,16],"right_children":[2,-1,4,-1,6,8,10,12,14,-1,-1,-1,-1,16,18,-1,20,-1,-1,-1,-1],"split_conditions":[5.283019E-1,-3.1594606E-3,5.308642E-2,-6.77509E-4,7.1428573E-1,1.8333334E-1,6.8333334E-1,1.2903225E-1,1.4197531E-1,8.4182835E-4,2.0295798E-4,-3.850579E-5,-2.5490165E-4,5.8064514E-1,9.032258E-1,3.0648365E-4,9.245283E-1,6.6478667E-4,9.265661E-5,-1.3007187E-4,1.381132E-4],"split_indices":[4,0,5,0,6,7,7,0,5,0,0,0,0,0,0,0,4,0,0,0,0],"split_type":[0,0,0,0,0,0,0,0,0,0,0,0,0,0,0,0,0,0,0,0,0],"sum_hessian":[2.6E1,1E0,2.5E1,3E0,2.2E1,1.5E1,7E0,3E0,1.2E1,6E0,1E0,1E0,2E0,8E0,4E0,3E0,5E0,3E0,1E0,4E0,1E0],"tree_param":{"num_deleted":"0","num_feature":"13","num_nodes":"21","size_leaf_vector":"1"}},{"base_weights":[-1.3773077E-2,-3.1436633E-3,1.0825307E-2,-2.582103E-2,4.146322E-2,5.1330356E-4,-3.750119E-2,8.5976785E-3,8.385099E-2,-8.274591E-3,-5.302002E-2,-2.8969884E-2,3.2209773E-2,9.254346E-4,2.0194321E-4,-3.1274558E-5,-1.06635285E-4,-1.280424E-4,-5.7588605E-4,-3.955671E-4,-1.225537E-4,1.6261767E-4,5.59749E-4],"categories":[],"categories_nodes":[],"categories_segments":[],"categories_sizes":[],"default_left":[0,0,0,0,0,0,0,0,0,0,0,0,0,0,0,0,0,0,0,0,0,0,0],"id":63,"left_children":[1,-1,3,5,7,-1,9,11,13,15,17,19,21,-1,-1,-1,-1,-1,-1,-1,-1,-1,-1],"loss_changes":[1.9564995E-1,0E0,2.91398E-2,1.2738636E-2,1.8782437E-2,0E0,4.550471E-3,8.916553E-3,1.4511496E-3,2.813121E-5,5.4872595E-4,2.2303243E-4,1.3637873E-3,0E0,0E0,0E0,0E0,0E0,0E0,0E0,0E0,0E0,0E0],"parents":[2147483647,0,0,2,2,3,3,4,4,6,6,7,7,8,8,9,9,10,10,11,11,12,12],"right_children":[2,-1,4,6,8,-1,10,12,14,16,18,20,22,-1,-1,-1,-1,-1,-1,-1,-1,-1,-1],"split_conditions":[2E-1,-3.1436633E-3,3.3333334E-1,5.1282052E-2,7.1428573E-1,5.1330356E-4,3.8043478E-1,5E-1,7.924528E-1,1E0,2.2580644E-1,1.6129032E-2,6.8333334E-1,9.254346E-4,2.0194321E-4,-3.1274558E-5,-1.06635285E-4,-1.280424E-4,-5.7588605E-4,-3.955671E-4,-1.225537E-4,1.6261767E-4,5.59749E-4],"split_indices":[2,0,7,9,6,0,10,2,4,8,0,0,7,0,0,0,0,0,0,0,0,0,0],"split_type":[0,0,0,0,0,0,0,0,0,0,0,0,0,0,0,0,0,0,0,0,0,0,0],"sum_hessian":[2.5E1,1E0,2.4E1,1.1E1,1.3E1,1E0,1E1,8E0,5E0,4E0,6E0,3E0,5E0,4E0,1E0,2E0,2E0,1E0,5E0,1E0,2E0,4E0,1E0],"tree_param":{"num_deleted":"0","num_feature":"13","num_nodes":"23","size_leaf_vector":"1"}},{"base_weights":[1.4138437E-2,3.1210365E-2,-1.8925796E-3,7.318258E-4,7.854012E-2,-3.337788E-2,3.475005E-2,8.333429E-4,2.0093351E-4,-4.4951437E-5,-4.2256266E-2,7.117915E-4,1.0743827E-2,-4.561143E-4,-1.2740224E-4,2.3018658E-2,-9.203891E-3,2.710382E-4,5.3815842E-5,-1.6951859E-5,-1.211065E-4],"categories":[],"categories_nodes":[],"categories_segments":[],"categories_sizes":[],"default_left":[0,0,0,0,0,0,0,0,0,0,0,0,0,0,0,0,0,0,0,0,0],"id":64,"left_children":[1,3,-1,5,7,9,11,-1,-1,-1,13,-1,15,-1,-1,17,19,-1,-1,-1,-1],"loss_changes":[8.9243665E-2,3.3120975E-2,0E0,1.8565157E-2,8.4737316E-4,1.8615089E-3,6.2314644E-3,0E0,0E0,0E0,1.3086945E-5,0E0,1.6809904E-3,0E0,0E0,1.4233985E-4,4.494819E-5,0E0,0E0,0E0,0E0],"parents":[2147483647,0,0,1,1,3,3,4,4,5,5,6,6,10,10,12,12,15,15,16,16],"right_children":[2,4,-1,6,8,10,12,-1,-1,-1,14,-1,16,-1,-1,18,20,-1,-1,-1,-1],"split_conditions":[8.181818E-1,7.1428573E-1,-1.8925796E-3,4E-1,5.967742E-1,3.8E-1,4.2857143E-1,8.333429E-4,2.0093351E-4,-4.4951437E-5,1.580247E-1,7.117915E-4,5.645161E-1,-4.561143E-4,-1.2740224E-4,6.666667E-1,6.935484E-1,2.710382E-4,5.3815842E-5,-1.6951859E-5,-1.211065E-4],"split_indices":[3,6,0,1,0,11,6,0,0,0,5,0,0,0,0,1,0,0,0,0,0],"split_type":[0,0,0,0,0,0,0,0,0,0,0,0,0,0,0,0,0,0,0,0,0],"sum_hessian":[2.3E1,2.2E1,1E0,1.4E1,8E0,7E0,7E0,7E0,1E0,2E0,5E0,2E0,5E0,4E0,1E0,3E0,2E0,2E0,1E0,1E0,1E0],"tree_param":{"num_deleted":"0","num_feature":"13","num_nodes":"21","size_leaf_vector":"1"}},{"base_weights":[-1.9745594E-2,-3.3405581E-3,2.4012417E-2,7.066262E-2,-2.4685184E-3,8.119787E-2,-1.5420914E-5,-2.5789028E-2,3.6810417E-2,1.4915048E-4,8.975917E-2,-2.6363016E-3,-4.0784795E-2,-1.686722E-5,4.484719E-2,2.4580688E-4,9.787873E-4,-9.373933E-5,1.2157112E-4,-4.5115948E-2,-9.5645184E-5,5.14597E-4,9.198576E-5,-5.005667E-4,-1.2676537E-4],"categories":[],"categories_nodes":[],"categories_segments":[],"categories_sizes":[],"default_left":[0,0,0,0,0,0,0,0,0,0,0,0,0,0,0,0,0,0,0,0,0,0,0,0,0],"id":65,"left_children":[1,-1,3,5,7,9,-1,11,13,-1,15,17,19,-1,21,-1,-1,-1,-1,23,-1,-1,-1,-1,-1],"loss_changes":[3.3810765E-1,0E0,2.7351933E-2,6.210778E-3,1.4689377E-2,2.6335046E-3,0E0,3.364408E-3,1.9320017E-3,0E0,7.693991E-4,6.123228E-4,3.7980638E-4,0E0,7.052785E-4,0E0,0E0,0E0,0E0,1.6682502E-4,0E0,0E0,0E0,0E0,0E0],"parents":[2147483647,0,0,2,2,3,3,4,4,5,5,7,7,8,8,10,10,11,11,12,12,14,14,19,19],"right_children":[2,-1,4,6,8,10,-1,12,14,-1,16,18,20,-1,22,-1,-1,-1,-1,24,-1,-1,-1,-1,-1],"split_conditions":[2E-1,-3.3405581E-3,5E-1,8.666667E-1,5.714286E-1,2.6363635E-1,-1.5420914E-5,3.8043478E-1,1E-1,1.4915048E-4,4E-1,3.3333334E-1,4.2857143E-1,-1.686722E-5,1.6049382E-1,2.4580688E-4,9.787873E-4,-9.373933E-5,1.2157112E-4,1.345679E-1,-9.5645184E-5,5.14597E-4,9.198576E-5,-5.005667E-4,-1.2676537E-4],"split_indices":[2,0,8,1,6,3,0,10,11,0,2,7,6,0,5,0,0,0,0,5,0,0,0,0,0],"split_type":[0,0,0,0,0,0,0,0,0,0,0,0,0,0,0,0,0,0,0,0,0,0,0,0,0],"sum_hessian":[2.3E1,2E0,2.1E1,7E0,1.4E1,6E0,1E0,9E0,5E0,1E0,5E0,4E0,5E0,1E0,4E0,1E0,4E0,3E0,1E0,4E0,1E0,3E0,1E0,3E0,1E0],"tree_param":{"num_deleted":"0","num_feature":"13","num_nodes":"25","size_leaf_vector":"1"}},{"base_weights":[3.1824686E-2,1.0364395E-2,7.88148E-2,-3.7771189E-3,3.5146575E-2,8.4435317E-4,1.9735574E-4,3.4395427E-2,-1.8668424E-2,4.760386E-4,1.390265E-4,-3.7086604E-5,4.8333008E-4,-3.044937E-2,-7.976055E-4,-3.318019E-4,-8.397639E-5,-7.0451647E-3,1.2096315E-4,-8.274694E-5,-1.678288E-5],"categories":[],"categories_nodes":[],"categories_segments":[],"categories_sizes":[],"default_left":[0,0,0,0,0,0,0,0,0,0,0,0,0,0,0,0,0,0,0,0,0],"id":66,"left_children":[1,3,5,7,9,-1,-1,11,13,-1,-1,-1,-1,15,17,-1,-1,19,-1,-1,-1],"loss_changes":[2.540209E-2,6.7914473E-3,9.900704E-4,8.031816E-3,1.1906717E-3,0E0,0E0,2.3035663E-3,2.0810647E-3,0E0,0E0,0E0,0E0,8.2680956E-5,4.879982E-4,0E0,0E0,1.25076185E-5,0E0,0E0,0E0],"parents":[2147483647,0,0,1,1,2,2,3,3,4,4,7,7,8,8,13,13,14,14,17,17],"right_children":[2,4,6,8,10,-1,-1,12,14,-1,-1,-1,-1,16,18,-1,-1,20,-1,-1,-1],"split_conditions":[7.1428573E-1,4.6666667E-1,6.8333334E-1,6.415094E-1,2.5641027E-1,8.4435317E-4,1.9735574E-4,1.2903225E-1,1E0,4.760386E-4,1.390265E-4,-3.7086604E-5,4.8333008E-4,7.741935E-1,6E-1,-3.318019E-4,-8.397639E-5,6.1290324E-1,1.2096315E-4,-8.274694E-5,-1.678288E-5],"split_indices":[6,7,7,4,9,0,0,0,12,0,0,0,0,0,2,0,0,0,0,0,0],"split_type":[0,0,0,0,0,0,0,0,0,0,0,0,0,0,0,0,0,0,0,0,0],"sum_hessian":[2.5E1,1.8E1,7E0,1.2E1,6E0,6E0,1E0,3E0,9E0,3E0,3E0,1E0,2E0,5E0,4E0,4E0,1E0,3E0,1E0,2E0,1E0],"tree_param":{"num_deleted":"0","num_feature":"13","num_nodes":"21","size_leaf_vector":"1"}},{"base_weights":[-2.8832825E-2,-3.3203622E-3,1.8089328E-2,-6.6650077E-4,3.6963932E-2,-2.9142767E-2,5.321128E-2,-2.8539895E-5,-3.6954362E-4,3.1423997E-2,8.614359E-4,6.9732306E-4,1.3130382E-2,-9.004791E-3,2.2009572E-2,-1.6698837E-5,-1.18373035E-4,2.4400341E-4,5.0278602E-5],"categories":[],"categories_nodes":[],"categories_segments":[],"categories_sizes":[],"default_left":[0,0,0,0,0,0,0,0,0,0,0,0,0,0,0,0,0,0,0],"id":67,"left_children":[1,-1,3,-1,5,7,9,-1,-1,11,-1,-1,13,15,17,-1,-1,-1,-1],"loss_changes":[3.1899935E-1,0E0,3.4452107E-2,0E0,1.9809721E-2,7.1596215E-4,7.338099E-3,0E0,0E0,6.092365E-3,0E0,0E0,1.7705308E-3,4.2561718E-5,1.20914774E-4,0E0,0E0,0E0,0E0],"parents":[2147483647,0,0,2,2,4,4,5,5,6,6,9,9,12,12,13,13,14,